4039 50
3437 -0.365253 0.029694 0.169439 0.188677 -0.459766 0.366636 -0.188253 -0.423677 0.648181 0.273687 0.161073 0.632238 -0.523970 0.326760 0.378680 -0.304390 0.757571 -0.408185 0.835354 -0.406062 0.406105 0.951457 -0.040675 0.745489 -0.128237 -0.007970 -0.458426 -0.118555 0.009353 -0.104326 0.466151 -0.782505 -0.220430 -0.092028 -0.419338 0.655893 -0.866718 0.329886 0.548398 -0.396250 0.337579 -0.820971 0.822082 0.166404 1.156733 0.432254 -0.330014 -0.875173 0.136937 -0.454014
107 0.614983 0.423744 0.538567 0.140762 0.225986 -0.011665 -0.484897 -0.680486 0.796228 0.228127 0.086957 -0.213837 -0.412206 -0.257361 0.505603 0.053215 -0.444069 -0.200101 0.350105 0.178713 0.175799 0.458129 0.178831 0.188984 0.000387 0.129374 0.085710 -0.640023 -0.068833 -0.673679 0.280423 0.234863 -0.180008 -0.219834 0.148995 0.278024 0.506119 0.017420 0.310447 0.003743 -0.166041 -0.044860 0.228089 -0.054896 0.092741 0.422360 0.850806 -0.799950 0.076197 0.176051
1684 0.601650 -0.138396 0.966988 0.468291 0.008290 -1.000429 -0.456188 0.265512 0.590650 0.030451 -0.302416 0.506724 -0.185188 0.550670 0.410888 0.144112 0.455323 -0.051353 0.083580 -0.512525 -0.258924 0.625441 -0.464993 0.880514 -0.265235 -0.212561 -0.529665 -0.358625 0.238673 -0.347861 0.854420 -0.102311 0.371671 -0.122486 0.458010 0.443361 0.012416 0.862300 0.285281 0.380078 0.308766 0.025824 0.689255 -0.309972 -0.169720 0.058812 0.162368 0.239235 -0.387349 0.246145
0 -0.141661 -0.319328 0.048472 -0.534979 0.539048 -0.789313 -0.271242 -1.021497 0.466460 0.376030 0.322767 -0.039559 0.326421 -0.319166 0.597057 -0.274568 1.361195 -0.082395 0.004739 -0.318452 -0.138457 0.199508 -0.355685 1.003856 -0.601327 -0.955566 -0.291015 -0.985135 -0.640867 -0.468677 0.253285 -0.212085 0.165641 -0.828251 -0.270177 0.085074 -0.235017 0.155560 0.860979 -0.177921 -0.595010 -0.165506 0.052136 0.497474 -0.423169 0.349411 0.029115 -0.730041 -0.341284 0.111064
1912 -0.172219 0.697922 -0.289168 -0.113516 -0.250549 -0.851859 -0.308421 -0.531371 0.606545 0.175063 1.143153 -0.145938 0.360905 0.009243 0.484544 0.198342 0.092451 -0.186327 0.289629 0.289626 -0.830841 1.007331 -0.143515 0.736276 0.215827 -0.677833 -0.062029 -0.004892 -0.254794 0.130415 0.199821 -0.064729 0.026444 0.040269 -0.548432 0.579623 -0.212058 -0.135324 -0.362297 0.515947 -0.093678 -0.340924 0.000809 -0.373480 -0.035769 -0.099274 -0.956509 -0.641582 0.069814 -0.106732
686 -0.278897 1.010448 0.607355 -0.073929 0.788651 -1.013429 0.459639 -0.168432 0.727164 0.854436 1.579166 -0.019537 0.343881 0.187875 0.622781 -0.727903 0.801076 -0.591424 0.158086 0.396275 0.276302 1.040034 -0.396669 0.364702 0.173003 -0.846641 -0.199723 0.065288 -0.070760 -0.848331 0.821755 -0.570290 0.295401 0.223337 0.366776 0.300460 -0.925251 0.088506 0.255855 -0.248116 -0.009726 -0.926948 0.854655 0.122913 -0.448318 1.068884 0.561100 0.192450 -0.456615 -0.684556
3980 -0.475824 0.471045 1.235134 1.185835 -0.915796 -1.269180 -0.466056 -0.774930 1.618937 0.781055 0.695101 1.285197 0.425832 0.270108 0.526716 0.267308 1.055863 -0.254174 0.025301 0.581178 0.039903 0.679547 -0.007374 0.713066 0.600916 -0.515067 -0.076862 -0.560436 -0.996719 -0.321270 0.536243 -0.149764 0.665609 -0.318874 -0.074586 0.981792 0.012531 1.141666 0.868807 -0.608600 -0.116374 -0.409269 -0.065186 -0.515480 0.456996 0.946797 0.168056 -0.985018 -0.265104 -0.140168
348 -0.166637 -0.229365 0.110365 -0.250653 0.070003 -0.624563 -0.135757 -0.984227 0.805561 0.298846 0.150833 0.069148 -0.028032 -0.610802 1.038394 0.399978 0.646876 -0.588836 -0.618833 0.172454 0.797694 0.946805 -0.033817 0.574585 0.343124 -0.509940 -0.484230 0.092542 -0.566781 -0.224796 0.526816 -0.744794 0.233927 -0.024028 -0.320939 -0.157978 0.437940 0.236265 0.041996 -0.293751 -0.319461 0.287121 0.130077 0.370133 -0.227407 0.363734 0.513001 -0.953807 0.304501 -0.550385
483 0.098611 0.150874 0.236853 0.169574 0.175590 -0.231813 -0.456496 -0.905592 1.091447 -0.127022 0.366481 -0.219587 0.024514 -0.242454 0.757092 0.472374 -0.309084 -0.528829 -0.329021 0.318685 0.771128 0.590187 0.358944 0.141248 0.072546 -0.290883 -0.489844 -0.271674 -0.022301 -0.172831 0.088257 -0.029476 0.557258 -0.219396 -0.329250 0.071947 0.534979 0.266768 -0.002053 -0.262672 -0.081600 0.114987 0.279059 0.106518 0.256960 0.120432 1.039030 -1.333022 0.196030 -0.229753
414 -0.469138 -0.267532 0.762837 0.431502 -0.005783 -0.650458 -0.044565 -0.291480 0.865560 0.440429 0.640771 -0.173055 0.172736 -0.723786 0.210648 0.297514 0.234242 -0.582719 -0.135621 0.124568 0.428412 0.289884 0.103868 0.463261 0.290346 -0.504584 0.125021 -0.577670 -0.529258 -0.142717 -0.067884 -0.528700 0.202496 -0.602975 -0.196113 0.321567 0.214858 0.910755 0.229351 -0.524638 0.033528 0.584751 -0.053583 0.018689 -0.007350 0.036261 0.958580 -1.323694 0.227931 -0.787689
3830 -0.100669 0.135548 0.267272 0.203196 -0.041626 -0.032586 -0.226311 -0.668457 0.522525 0.503738 -0.204214 0.716600 -0.100121 0.516505 0.345594 -0.348408 0.616532 -0.698389 0.585646 -0.611069 -0.142408 1.260376 -0.271832 0.503232 -0.112330 0.363650 0.214322 -0.749244 0.410273 -0.253309 0.180656 -0.784566 -0.430078 -0.360757 -0.556016 0.608125 -0.846371 0.206205 0.083132 -0.078762 0.431592 -0.725828 0.616755 -0.066896 1.234177 0.410925 -0.468865 -1.555997 -0.066620 -0.276761
1888 0.249681 0.401451 0.894790 -0.361701 0.368145 -0.073088 -0.228063 -0.757396 0.590456 0.525407 0.750079 -0.372363 -0.415051 -0.383158 0.394119 0.198943 -0.619264 0.258514 0.607796 0.121298 0.110250 0.794644 -0.019188 0.815535 -0.509153 -0.011782 -0.116735 -0.186845 -0.233705 -0.566140 0.742807 0.063057 0.424019 -0.227997 -0.011366 0.722167 0.532894 0.598470 -0.223294 0.053378 -0.058995 -0.508747 0.001082 -0.031311 -0.433622 0.980018 0.564045 -0.928932 0.066939 0.103861
67 0.028353 -0.039669 -0.096201 -0.562084 0.164118 -1.144399 -0.136125 -0.979240 0.683965 0.077336 0.614864 -0.467985 -0.007458 -0.309467 0.300194 -0.147921 0.707254 0.126739 0.461012 -0.500698 -0.185000 0.407204 -0.070809 1.232722 -0.540361 -1.044364 -0.138977 -1.038215 -0.730801 -0.508318 0.469895 -0.145253 -0.076543 -0.705235 -0.006344 0.169984 -0.692650 0.374841 0.895532 0.075869 -0.615057 0.276049 0.430625 -0.009620 -0.590575 0.221094 -0.402215 -0.687864 -0.374325 0.206355
56 0.073095 -0.092357 -0.145972 -0.621213 0.147300 -1.160057 -0.214268 -1.037178 0.677314 0.058945 0.649300 -0.466930 -0.019271 -0.358379 0.278693 -0.136413 0.659203 0.177707 0.506106 -0.497135 -0.150892 0.434984 -0.052081 1.289990 -0.606241 -1.128859 -0.225502 -1.091513 -0.755983 -0.474904 0.463336 -0.098661 -0.089197 -0.792951 -0.094804 0.168588 -0.676651 0.358071 0.882887 0.092667 -0.608319 0.293108 0.352568 -0.030986 -0.629644 0.162161 -0.428490 -0.782431 -0.382994 0.233572
698 -0.330400 0.729226 0.994760 0.142249 0.671614 -0.227443 0.603334 -0.420993 0.892868 0.940922 0.506188 0.202881 0.401508 0.370828 0.418357 -0.531892 0.926417 -0.734465 -0.074978 0.229753 -0.046176 1.016855 -0.433631 0.367147 -0.287895 -0.244231 0.274690 0.068552 0.488196 -0.714841 0.635215 -0.699197 -0.064037 0.580117 0.321577 0.295192 -1.360179 -0.187114 -0.226864 -0.058673 0.386797 -1.162178 1.139754 0.618516 0.450402 0.853613 0.249021 -0.385916 -0.386859 -1.010314
1800 0.217621 0.301404 0.838171 -0.321719 0.311632 0.083071 -0.227504 -0.690817 0.589774 0.626146 0.596192 -0.327410 -0.457750 -0.436251 0.417429 0.265004 -0.548496 0.234212 0.545179 0.066492 0.155569 0.832396 -0.064700 0.821056 -0.493171 0.035957 -0.094289 -0.173447 -0.150083 -0.542495 0.711045 0.058266 0.317656 -0.187652 -0.003504 0.587736 0.510303 0.609362 -0.263193 0.031480 -0.020013 -0.460537 -0.007373 -0.029512 -0.321117 0.966707 0.609129 -1.050531 0.115164 0.051119
271 0.119742 -0.073685 -0.110457 -0.678280 0.114697 -1.281065 -0.204274 -1.096623 0.654835 0.025905 0.619564 -0.510411 -0.102104 -0.277535 0.354798 -0.140410 0.814116 0.042363 0.520332 -0.599744 -0.046805 0.490828 -0.104648 1.347082 -0.660361 -1.099580 -0.169966 -1.180525 -0.831712 -0.366790 0.522232 -0.182780 -0.070826 -0.816803 -0.010823 0.193782 -0.672300 0.526827 0.914937 -0.009309 -0.664043 0.263305 0.375792 0.049804 -0.615321 0.225631 -0.304049 -0.853490 -0.399837 0.318089
828 0.120245 0.881004 0.921377 -0.246874 0.732406 -0.948405 0.397334 -0.195950 1.068629 0.925051 1.438470 0.199677 0.399456 0.022530 0.404768 -0.618530 0.529551 -0.743023 -0.044173 0.171452 -0.024318 1.419037 -0.422473 0.174594 0.117596 -0.850597 -0.107519 0.142296 -0.059099 -0.930218 0.864306 -0.614669 0.554917 0.251007 0.483094 0.482699 -0.907967 0.039211 0.313463 0.106045 0.099191 -0.777288 0.661104 0.599954 -0.307615 1.137386 0.701229 0.233849 -0.335998 -0.670108
3938 -0.118989 0.007945 0.115377 0.626729 0.150707 0.083761 -0.235468 -0.628641 0.573227 0.601497 -0.124347 0.564522 -0.118452 0.473784 0.538980 -0.264545 0.831739 -0.908548 0.383753 -0.316033 0.168451 1.261198 -0.225895 0.713716 -0.236969 0.022515 -0.295540 -0.189342 0.444045 -0.128548 0.234241 -0.784274 -0.901872 -0.328786 -0.504458 0.477510 -0.819220 0.238641 -0.010238 0.059482 0.334780 -0.280995 0.917087 -0.078764 0.973082 0.389738 -0.218133 -1.499111 -0.025241 -0.464336
3596 -0.083294 -0.007355 0.069381 0.675688 0.156295 0.052635 -0.208454 -0.614588 0.557959 0.621527 -0.202803 0.555099 -0.079212 0.497870 0.522028 -0.143172 0.887939 -0.860777 0.346627 -0.315269 0.145819 1.338446 -0.259407 0.807725 -0.225726 0.052762 -0.233426 -0.168103 0.454508 -0.056204 0.240208 -0.745196 -0.940287 -0.355200 -0.546456 0.435155 -0.784007 0.324234 -0.143586 0.080863 0.303190 -0.137429 0.921617 -0.160023 1.008735 0.370750 -0.271493 -1.542133 -0.028913 -0.501278
1352 0.283980 0.299362 0.924475 -0.328535 0.300187 0.114690 -0.292892 -0.611710 0.580657 0.666577 0.615940 -0.231615 -0.380890 -0.344140 0.370159 0.179822 -0.625627 0.259625 0.587137 0.038088 0.056037 0.848269 -0.107777 0.807967 -0.578572 0.003910 -0.125245 -0.209691 -0.038346 -0.595405 0.769066 0.210483 0.283718 -0.237329 0.033171 0.632266 0.442252 0.530379 -0.254994 0.189390 0.009689 -0.516252 -0.067025 -0.081981 -0.309077 0.893694 0.528480 -0.950664 -0.047170 0.164033
3545 -0.117976 -0.089441 0.099602 0.668558 0.091099 0.078036 -0.365175 -0.595280 0.589013 0.617386 -0.182823 0.567357 -0.066657 0.635545 0.626938 -0.267686 0.868346 -0.915083 0.440988 -0.269151 0.126765 1.161920 -0.250648 0.867359 -0.244885 0.008139 -0.382542 -0.152304 0.497131 -0.060115 0.272734 -0.710314 -0.953958 -0.448273 -0.483566 0.484925 -0.851872 0.214583 0.011198 0.060066 0.366667 -0.209492 0.960403 -0.154548 0.960981 0.281376 -0.290931 -1.508840 0.003130 -0.442763
1431 0.350035 0.425216 0.944730 -0.270076 0.276042 0.021619 -0.387488 -0.593368 0.556134 0.460585 0.668436 -0.303241 -0.422338 -0.263058 0.388326 0.130052 -0.733277 0.206285 0.541488 0.045557 0.095541 0.765596 -0.091479 0.733636 -0.560260 0.038068 -0.200588 -0.256995 0.005805 -0.545439 0.791889 0.249619 0.358448 -0.273159 0.048573 0.632376 0.531344 0.563399 -0.280538 0.169919 0.028183 -0.482605 -0.022447 -0.119957 -0.277756 0.822640 0.566215 -0.915424 -0.101721 0.114893
3604 0.009799 0.068835 0.134422 0.656476 -0.014466 0.083748 -0.241819 -0.713542 0.517074 0.319691 -0.198765 0.592202 -0.189977 0.326555 0.444872 -0.028726 1.045529 -0.544217 0.570297 -0.393625 0.271165 1.196763 -0.133169 0.649385 -0.442417 0.103419 -0.339189 -0.144945 0.349631 -0.080014 0.293427 -0.594413 -0.639873 -0.263725 -0.635569 0.577090 -0.962644 0.424365 -0.000691 0.066615 0.268141 -0.204178 0.947543 -0.313176 1.209304 0.088313 -0.461227 -1.412727 -0.093948 -0.625447
1199 0.263637 0.413082 0.909321 -0.289089 0.374345 0.051335 -0.281921 -0.607594 0.543720 0.573505 0.678523 -0.316148 -0.397254 -0.255027 0.379147 0.085926 -0.642756 0.232158 0.621624 0.084546 0.065023 0.809660 -0.083463 0.781367 -0.575214 0.082362 -0.116430 -0.206192 -0.046731 -0.556587 0.696293 0.174475 0.363255 -0.206735 0.032150 0.713431 0.419244 0.558877 -0.200334 0.092803 0.036899 -0.561013 0.043186 -0.091824 -0.309527 0.967478 0.547140 -0.883764 -0.060689 0.165044
322 -0.027624 -0.100068 -0.153338 -0.586701 0.173845 -1.056933 -0.198613 -1.002156 0.655723 0.165921 0.611017 -0.364103 0.053818 -0.275649 0.286694 -0.182932 0.804922 0.135267 0.482337 -0.500358 -0.171943 0.445202 -0.136342 1.251618 -0.588803 -1.080058 -0.190251 -1.094664 -0.688652 -0.532788 0.475193 -0.157529 -0.086285 -0.793087 -0.099840 0.248145 -0.721851 0.335747 0.903815 0.076186 -0.624896 0.176322 0.348387 0.071450 -0.512972 0.274353 -0.444042 -0.771914 -0.351752 0.225167
26 0.121211 -0.073613 -0.062959 -0.624436 0.170542 -1.256716 -0.178042 -1.070104 0.657092 -0.007423 0.557244 -0.509275 -0.112051 -0.296912 0.396854 -0.098093 0.828601 0.068520 0.523867 -0.600125 -0.062926 0.475632 -0.102008 1.380484 -0.654452 -1.076332 -0.171021 -1.116993 -0.837842 -0.349676 0.492050 -0.203178 -0.052811 -0.794593 -0.034537 0.150608 -0.676754 0.525156 0.917977 -0.042705 -0.630775 0.281008 0.472564 0.008405 -0.647788 0.223118 -0.336984 -0.792265 -0.381931 0.291831
1663 0.313608 0.335002 0.855228 -0.292599 0.307706 0.125364 -0.343011 -0.646141 0.587417 0.631839 0.642098 -0.262625 -0.382752 -0.405086 0.330630 0.189124 -0.686059 0.343537 0.652071 0.092803 -0.023276 0.846469 -0.070873 0.799005 -0.579334 -0.011119 -0.154831 -0.213399 -0.050110 -0.577603 0.679712 0.232320 0.268869 -0.222153 -0.037099 0.634063 0.436138 0.486529 -0.297995 0.218544 0.065965 -0.501566 -0.058448 -0.147946 -0.302553 0.842154 0.454325 -0.979973 0.017662 0.170806
376 -0.131471 -0.097275 0.525093 0.163002 0.005324 -0.391883 -0.271153 -0.776272 0.835188 0.175751 0.406123 -0.146391 -0.205173 -0.595709 0.712426 0.552640 0.039987 -0.492915 -0.259782 0.212490 0.586087 0.762495 0.259613 0.381084 0.254636 -0.313939 -0.278604 0.051254 -0.500042 -0.122417 0.283828 -0.423434 0.227216 -0.121501 -0.349384 0.160714 0.494134 0.441474 -0.005290 -0.230665 -0.091771 0.318303 0.320889 0.141292 -0.085823 0.077412 0.736299 -1.096831 0.444494 -0.617443
25 0.021967 -0.121333 -0.096528 -0.610146 0.209678 -1.118357 -0.169625 -1.018231 0.631999 0.135540 0.570532 -0.346648 -0.014657 -0.239921 0.357096 -0.211351 0.871340 0.024398 0.448698 -0.500774 -0.094321 0.401370 -0.153834 1.233828 -0.625062 -1.064243 -0.149590 -1.089324 -0.735682 -0.429311 0.467351 -0.207459 -0.041504 -0.744096 -0.060660 0.212129 -0.692603 0.355508 0.885364 0.011610 -0.655474 0.148209 0.301319 0.096111 -0.568775 0.280057 -0.295226 -0.714446 -0.387396 0.279364
1730 0.249150 0.309823 0.893231 -0.292178 0.295165 0.081794 -0.306224 -0.607563 0.568847 0.602368 0.597053 -0.275911 -0.407160 -0.386977 0.378719 0.252695 -0.595999 0.194067 0.522992 0.055135 0.132749 0.824993 -0.075254 0.785691 -0.493012 0.022176 -0.111458 -0.191262 -0.092309 -0.569502 0.697504 0.154776 0.322194 -0.199993 0.021224 0.602916 0.452473 0.593333 -0.213194 0.084070 0.007118 -0.403950 -0.059186 -0.059989 -0.294912 0.892007 0.607606 -0.986717 -0.014315 0.061310
713 0.071034 0.941589 0.856917 -0.229265 0.794605 -1.019907 0.419818 -0.173695 0.984293 0.953509 1.559705 0.161498 0.370346 0.037695 0.458453 -0.654685 0.629892 -0.734119 0.015267 0.203899 0.027473 1.366392 -0.428418 0.212711 0.191483 -0.901688 -0.150757 0.134938 -0.100817 -0.904943 0.874181 -0.601296 0.462553 0.247237 0.454954 0.447045 -0.890349 0.060731 0.321744 0.059012 0.082969 -0.800142 0.674790 0.459652 -0.353137 1.129691 0.721229 0.255150 -0.343832 -0.646167
475 0.044258 -0.046933 0.354547 -0.057336 0.140959 -0.358118 -0.202596 -0.870630 0.827447 0.156958 0.330936 -0.308440 -0.283677 -0.673121 0.760171 0.583669 0.044278 -0.482116 -0.329669 0.103906 0.547776 0.862320 0.115606 0.419853 0.188314 -0.412527 -0.332900 -0.017789 -0.418098 -0.189298 0.347399 -0.459127 0.222254 -0.113025 -0.327135 -0.010954 0.576629 0.357882 -0.248725 -0.207115 -0.100676 0.319138 0.325164 0.224904 -0.121745 0.150583 0.847843 -1.182699 0.468954 -0.714058
21 -0.154374 -0.080281 -0.250257 -0.577891 0.087805 -1.261863 -0.106003 -0.935228 0.669873 0.164600 0.619001 -0.459073 -0.033683 -0.134548 0.308073 -0.242561 0.824786 -0.019650 0.450062 -0.446702 -0.070915 0.397913 -0.177905 1.262641 -0.540953 -1.012023 -0.140252 -1.076987 -0.711580 -0.572225 0.545458 -0.251605 -0.083790 -0.683426 0.025333 0.267084 -0.615406 0.361262 0.952931 -0.027016 -0.670232 0.227603 0.371541 -0.015756 -0.630277 0.332972 -0.385551 -0.762742 -0.341807 0.091277
428 -0.184385 -0.039202 0.490678 0.438158 -0.235103 -0.492065 -0.339667 -0.850996 0.956668 0.272121 0.487333 -0.026683 -0.241338 -0.687306 0.732216 0.437758 0.167208 -0.448244 -0.214914 0.336016 0.415141 0.570952 0.301192 0.285012 0.430569 -0.323375 -0.166729 -0.110365 -0.718424 -0.087744 0.253265 -0.375277 0.122559 -0.170308 -0.356383 0.231022 0.723365 0.464708 0.137570 -0.128270 -0.106757 0.309975 0.100313 0.007871 0.038785 0.058751 0.562479 -1.243938 0.436947 -0.494098
1584 0.169786 0.448247 0.874005 -0.282148 0.340467 -0.059080 -0.276874 -0.663840 0.592138 0.293033 0.777385 -0.468982 -0.332968 -0.431513 0.461781 0.067777 -0.664453 0.156319 0.510736 0.190594 0.222209 0.637102 0.090590 0.634997 -0.413112 -0.014644 -0.218160 -0.109182 -0.257006 -0.416443 0.585952 0.083997 0.536383 -0.208645 -0.013514 0.795537 0.639301 0.506208 -0.027752 0.049488 0.013513 -0.375000 0.046683 0.071445 -0.432786 0.771785 0.649970 -0.848987 0.062235 0.032944
1589 0.267576 0.399497 0.866155 -0.309975 0.354704 0.063858 -0.335785 -0.585656 0.601138 0.560611 0.687473 -0.344442 -0.327001 -0.335748 0.318214 0.177028 -0.663617 0.326757 0.629269 0.084642 0.066703 0.798995 -0.097226 0.846840 -0.620976 -0.000754 -0.154345 -0.242369 -0.050303 -0.583144 0.648105 0.234470 0.435401 -0.250688 0.004442 0.686573 0.387737 0.564217 -0.207771 0.078812 0.034012 -0.518845 -0.044928 -0.090236 -0.332373 0.909897 0.581931 -0.926087 -0.048893 0.141372
1768 0.299734 0.288539 0.883670 -0.263480 0.285548 0.137587 -0.358728 -0.585590 0.582149 0.609992 0.516082 -0.229678 -0.390241 -0.311845 0.375775 0.276603 -0.620712 0.199093 0.516541 0.022312 0.145113 0.856166 -0.136120 0.811515 -0.586229 0.051040 -0.136414 -0.234311 0.053752 -0.563248 0.688984 0.209017 0.320482 -0.226026 0.004756 0.563808 0.392580 0.589880 -0.296265 0.088168 0.050532 -0.461680 -0.039505 -0.096702 -0.221454 0.886991 0.637388 -1.022774 -0.051761 0.107989
119 0.266069 -0.198119 0.097960 -0.555622 0.153236 -1.135723 -0.259380 -0.852715 0.585667 -0.043616 0.346925 -0.464928 -0.153559 -0.271551 0.344753 -0.103569 0.607809 -0.010458 0.259112 -0.582710 -0.053452 0.354997 -0.097103 1.045708 -0.525342 -0.983382 -0.257189 -1.108849 -0.579681 -0.475465 0.572241 -0.059599 -0.092202 -0.707082 0.189295 0.153471 -0.336812 0.378281 0.930612 0.274823 -0.575160 0.374335 0.362234 0.063134 -0.597460 0.059541 -0.124056 -0.583195 -0.417851 0.339624
1827 0.339095 0.330934 0.904762 -0.298223 0.289732 0.017574 -0.305006 -0.612746 0.602349 0.590145 0.605787 -0.239077 -0.388178 -0.408404 0.336949 0.332773 -0.634157 0.236041 0.530160 0.085793 0.069031 0.861628 -0.087158 0.778198 -0.456521 -0.035270 -0.098017 -0.193958 -0.066608 -0.584828 0.691490 0.145100 0.350012 -0.191562 0.072356 0.574157 0.484573 0.544621 -0.262176 0.131593 -0.005097 -0.426965 -0.070011 -0.078488 -0.349107 0.843486 0.605435 -0.882528 0.027146 0.070072
1746 0.274276 0.372112 0.824289 -0.306955 0.338636 0.038218 -0.289505 -0.609248 0.601990 0.511737 0.648745 -0.376092 -0.371519 -0.362684 0.384027 0.203511 -0.615618 0.259618 0.566502 0.083422 0.105980 0.776717 -0.072308 0.816782 -0.549449 0.000773 -0.145376 -0.215952 -0.072186 -0.532679 0.670462 0.181984 0.415049 -0.211850 0.012904 0.644154 0.470410 0.549729 -0.198594 0.068306 0.016989 -0.458867 -0.020931 -0.048960 -0.342702 0.892910 0.613631 -0.925701 0.009479 0.110840
3101 0.732853 0.105220 1.015692 0.180083 -0.395007 -0.810063 -0.660257 -0.014627 0.595041 -0.102057 0.087018 0.588793 -0.143595 0.465377 0.478240 0.425276 0.025467 -0.552009 -0.481807 -0.499637 -0.170164 1.011481 -0.475831 0.589855 -0.150922 -0.525774 -0.603313 -0.458586 0.631067 -0.306161 1.152264 0.110955 0.059128 -0.376927 0.291862 -0.028185 -0.235536 0.492348 -0.158593 0.534418 0.243897 0.044779 0.329818 -0.281273 0.185462 -0.535536 0.181366 -0.275224 -0.646235 -0.567605
122 -0.028810 -0.107319 -0.197034 -0.609494 0.093563 -1.168070 -0.217502 -0.959858 0.660929 0.167578 0.672596 -0.359071 0.036193 -0.245854 0.270080 -0.222832 0.793778 0.058051 0.408894 -0.460219 -0.134586 0.434518 -0.128331 1.189598 -0.577892 -1.118164 -0.198383 -1.097027 -0.691080 -0.557249 0.473734 -0.165586 -0.092026 -0.714357 -0.054554 0.278253 -0.682089 0.271143 0.945487 0.146438 -0.646121 0.180117 0.283091 0.064474 -0.562404 0.209977 -0.435020 -0.735550 -0.358073 0.211551
705 0.136312 0.880004 0.894021 -0.242141 0.734339 -0.951285 0.433080 -0.180924 1.040504 0.946104 1.485860 0.205951 0.368641 -0.003030 0.392541 -0.630659 0.531354 -0.774335 -0.026270 0.155876 -0.015135 1.421762 -0.400909 0.165597 0.126827 -0.870217 -0.118288 0.156039 -0.045844 -0.932895 0.855174 -0.646228 0.539999 0.262387 0.473606 0.475940 -0.944455 0.038637 0.306311 0.100213 0.091033 -0.775429 0.674458 0.599234 -0.316328 1.144938 0.694597 0.250981 -0.337874 -0.688915
277 0.002353 -0.081805 -0.104628 -0.612840 0.198383 -1.139627 -0.169107 -1.017827 0.630728 0.162155 0.553508 -0.309764 0.040049 -0.181408 0.336949 -0.119418 0.902165 0.048509 0.449537 -0.517112 -0.158175 0.397114 -0.228094 1.308764 -0.663314 -1.035402 -0.137941 -1.113461 -0.663396 -0.493835 0.535463 -0.205232 0.007343 -0.707767 -0.029689 0.220929 -0.725295 0.344766 0.889238 -0.000117 -0.689262 0.096768 0.265357 0.046721 -0.565237 0.286345 -0.328521 -0.729891 -0.459592 0.225279
2543 0.015211 0.691318 -0.181163 0.057999 -0.049814 -0.800474 -0.522022 -0.778849 0.636087 -0.155024 0.956363 -0.455384 0.392298 0.137327 0.325230 -0.074681 -0.275445 0.346179 0.564681 0.309401 -0.782963 0.888334 -0.275784 1.050506 -0.121529 -0.735815 -0.266260 -0.272581 -0.102661 -0.106393 0.417387 0.293921 -0.067197 -0.554465 -0.625021 0.173444 -0.171051 -0.090228 -0.628580 0.037424 0.123982 -0.132110 0.117198 -0.651881 -0.158768 -0.135585 -0.815553 -0.960023 -0.308098 -0.456239
252 0.099072 -0.073234 -0.071737 -0.604337 0.182358 -1.242567 -0.118174 -1.056774 0.681305 0.017816 0.574543 -0.472134 -0.092312 -0.272008 0.380304 -0.150271 0.825443 0.003067 0.500341 -0.573294 -0.066127 0.432211 -0.066047 1.280457 -0.603176 -1.033522 -0.122729 -1.094294 -0.793017 -0.419082 0.491919 -0.261271 -0.086292 -0.710181 0.004576 0.185972 -0.707124 0.467515 0.961125 0.015362 -0.647963 0.238832 0.457651 0.026185 -0.598589 0.240240 -0.319852 -0.764311 -0.398057 0.259756
2347 0.024351 0.694216 -0.131423 0.041410 -0.077774 -0.818080 -0.517519 -0.751361 0.672744 -0.192705 0.932453 -0.447844 0.396637 0.090548 0.312584 -0.056111 -0.276077 0.389396 0.546595 0.276994 -0.807636 0.885951 -0.267365 1.088369 -0.142126 -0.753887 -0.301620 -0.268497 -0.110265 -0.079454 0.440838 0.307479 0.003378 -0.527188 -0.623858 0.205944 -0.193525 -0.058443 -0.617819 0.057624 0.164750 -0.136749 0.112005 -0.640334 -0.159585 -0.162476 -0.760707 -0.939998 -0.312403 -0.463498
805 0.128745 0.894658 0.906657 -0.265711 0.736693 -0.954354 0.425670 -0.176737 1.032278 0.949897 1.507246 0.192899 0.364993 0.012183 0.399511 -0.650581 0.564942 -0.768391 0.022284 0.126149 0.006904 1.428200 -0.400442 0.181107 0.134763 -0.882229 -0.149556 0.166387 -0.066568 -0.945837 0.869818 -0.658988 0.535767 0.247882 0.474063 0.499426 -0.960492 0.065121 0.343371 0.085982 0.076393 -0.803181 0.683489 0.558403 -0.332696 1.163083 0.726888 0.242732 -0.334029 -0.660076
2047 0.084061 0.298272 0.100451 -0.154936 0.072555 -0.551272 -0.542956 -0.404780 0.766107 0.469755 1.337403 0.073781 0.435365 -0.459484 0.285508 0.066180 -0.216121 0.131863 0.467081 0.390057 -0.792309 1.132712 -0.020886 0.618655 0.017639 -1.050072 -0.373395 0.020114 -0.088096 -0.290772 -0.050941 0.079921 -0.154158 -0.333196 -0.748720 0.519568 -0.504601 -0.384749 -0.192775 0.610624 0.280421 -0.115628 0.061435 -0.432599 -0.213030 -0.274659 -0.959779 -0.698982 0.036338 -0.205519
1086 0.061037 0.323530 0.775255 -0.190665 0.357974 0.065563 -0.304623 -0.489902 0.698989 0.397874 0.713472 -0.463090 -0.126299 -0.435824 0.290449 0.165075 -0.652870 0.111619 0.457429 0.162478 0.328787 0.552518 0.076660 0.688907 -0.463952 -0.031915 -0.136955 -0.313778 -0.078262 -0.389240 0.251316 0.160253 0.624685 -0.247963 -0.095974 0.691650 0.367389 0.578529 -0.017309 -0.206436 0.065578 -0.214648 -0.043378 -0.007421 -0.219144 0.789991 0.909340 -1.059242 -0.012524 -0.018912
239 0.186310 -0.154133 -0.015610 -0.624092 0.197020 -1.241080 -0.172272 -1.113618 0.693522 0.015421 0.481059 -0.448682 -0.137692 -0.320950 0.455396 -0.072705 0.845459 -0.017743 0.484380 -0.584875 0.011437 0.427307 -0.127258 1.329587 -0.665772 -1.028107 -0.158340 -1.141251 -0.799626 -0.371394 0.492630 -0.249597 -0.042189 -0.775578 -0.034709 0.115009 -0.617850 0.515827 0.896856 -0.065618 -0.671006 0.278722 0.374111 0.024713 -0.638959 0.188354 -0.180011 -0.822374 -0.423048 0.275771
3291 0.660001 0.089268 1.080534 0.103427 -0.412071 -0.830859 -0.664510 0.044866 0.644001 -0.113168 0.168678 0.534628 -0.024966 0.402622 0.401807 0.448424 0.105309 -0.472714 -0.448944 -0.531274 -0.166870 1.022658 -0.625356 0.626834 -0.211453 -0.652702 -0.627678 -0.453301 0.474488 -0.298066 1.203361 0.167529 0.217434 -0.387048 0.345478 -0.004736 -0.291323 0.482799 -0.117578 0.482339 0.278435 0.006296 0.321677 -0.198120 0.066478 -0.561546 0.192758 -0.117398 -0.610736 -0.619448
1804 0.254325 0.400072 0.810063 -0.329704 0.344995 0.024457 -0.314401 -0.632918 0.612604 0.569823 0.709544 -0.352075 -0.300464 -0.352146 0.339950 0.200615 -0.637849 0.292516 0.575653 0.121367 0.077526 0.801845 -0.103589 0.854632 -0.578372 -0.032427 -0.132319 -0.256835 -0.063302 -0.585784 0.642030 0.228500 0.441893 -0.216563 -0.019076 0.632143 0.359850 0.542187 -0.239215 0.048150 -0.002525 -0.484624 -0.060759 -0.081964 -0.336725 0.918258 0.602190 -0.971880 -0.035303 0.116699
3684 -0.156184 0.164165 0.130589 0.586259 0.367030 0.206411 -0.061043 -0.590620 0.529745 0.791702 -0.005290 0.521871 -0.141067 0.409517 0.441709 -0.433236 0.538255 -0.993857 0.313720 -0.184864 0.277938 1.301028 -0.168154 0.514669 -0.265496 0.133179 -0.280818 -0.253374 0.586699 -0.204966 0.281954 -0.843385 -0.935567 -0.205866 -0.284180 0.454539 -0.854622 0.311689 -0.014287 0.196189 0.343278 -0.520691 0.907302 0.147689 0.877430 0.631799 -0.040698 -1.289292 -0.059521 -0.341112
1390 0.291987 0.370247 0.864562 -0.307485 0.317304 0.056132 -0.323547 -0.628309 0.617905 0.558076 0.715797 -0.346721 -0.325706 -0.393459 0.354767 0.183343 -0.675025 0.275553 0.585604 0.080055 0.075394 0.779601 -0.083561 0.790648 -0.559799 -0.060689 -0.156122 -0.257189 -0.053155 -0.564489 0.670288 0.236363 0.377469 -0.247392 -0.002807 0.637691 0.478267 0.514491 -0.217312 0.136820 0.035032 -0.455269 -0.084277 -0.066829 -0.341146 0.860720 0.563610 -0.970521 -0.038248 0.122276
203 0.030204 -0.116986 -0.093395 -0.627664 0.145312 -1.201429 -0.078612 -1.062139 0.700169 0.091400 0.533526 -0.489769 -0.084750 -0.333992 0.360430 -0.078443 0.801729 0.025620 0.481168 -0.566037 -0.073087 0.445079 -0.074358 1.336302 -0.589049 -1.019957 -0.109452 -1.097248 -0.803404 -0.436473 0.538182 -0.260214 -0.106870 -0.682756 -0.002649 0.133155 -0.693429 0.476784 0.895653 -0.025218 -0.684734 0.287787 0.413065 0.009045 -0.596391 0.265437 -0.296418 -0.840635 -0.359058 0.217988
1126 0.380876 0.430995 0.818419 -0.247044 0.406201 0.087485 -0.371124 -0.710222 0.611464 0.546000 0.733890 -0.299584 -0.403592 -0.332507 0.326518 0.128659 -0.727785 0.210721 0.667867 0.136281 0.094467 0.788144 -0.014689 0.695330 -0.571681 -0.008929 -0.126909 -0.283056 0.006764 -0.637748 0.596457 0.223668 0.301680 -0.247561 -0.024771 0.645821 0.406008 0.434802 -0.214619 0.175570 0.017721 -0.541737 -0.033985 -0.135187 -0.228801 0.895444 0.542934 -0.990402 -0.064128 0.195889
1621 0.310397 0.330650 0.801718 -0.340732 0.255965 0.099079 -0.331779 -0.635272 0.605128 0.527383 0.637108 -0.292605 -0.348278 -0.445683 0.318366 0.293376 -0.670241 0.329090 0.550065 0.067837 0.017818 0.814350 -0.057713 0.797240 -0.550575 -0.083081 -0.163547 -0.198627 -0.069356 -0.550391 0.681922 0.227124 0.324346 -0.204509 -0.044691 0.550496 0.415586 0.486169 -0.314152 0.174259 0.035572 -0.464885 -0.084150 -0.104855 -0.323116 0.793328 0.495447 -0.966271 0.043841 0.087119
1835 0.433517 0.331789 0.967501 -0.282238 0.245001 -0.007039 -0.382379 -0.551125 0.531461 0.487887 0.576297 -0.229120 -0.394642 -0.310519 0.363153 0.220384 -0.697074 0.237375 0.506422 0.032620 -0.003269 0.807196 -0.141914 0.717684 -0.515617 -0.034412 -0.142729 -0.236199 0.002842 -0.579219 0.789831 0.304174 0.261350 -0.272305 0.122280 0.572492 0.551612 0.515649 -0.267748 0.297547 0.041156 -0.409854 -0.089537 -0.141236 -0.341530 0.689927 0.497824 -0.800274 -0.121629 0.138871
1833 0.214081 0.360709 0.849195 -0.287121 0.319821 0.076540 -0.315904 -0.607014 0.625858 0.508612 0.660020 -0.356009 -0.335338 -0.362761 0.380975 0.170793 -0.602332 0.267422 0.571533 0.085625 0.125520 0.756489 -0.095919 0.799806 -0.583017 0.008916 -0.161660 -0.222778 -0.081955 -0.521500 0.654990 0.188652 0.459166 -0.212407 -0.014101 0.678946 0.471583 0.543703 -0.180892 0.063030 0.052198 -0.484345 -0.005365 -0.035143 -0.312002 0.892662 0.615963 -0.959283 0.012865 0.108723
1559 0.291191 0.394923 0.853816 -0.293617 0.316940 0.072633 -0.332035 -0.683388 0.642058 0.536292 0.709923 -0.375604 -0.391926 -0.415420 0.385165 0.200985 -0.674068 0.271629 0.618021 0.103885 0.086284 0.791867 -0.060037 0.816150 -0.578769 0.000878 -0.166846 -0.254897 -0.112673 -0.586581 0.661680 0.190725 0.430070 -0.215712 -0.024914 0.683988 0.454211 0.568433 -0.224793 0.091166 0.017214 -0.521757 -0.032026 -0.053658 -0.316230 0.908460 0.613790 -1.043016 0.029869 0.117791
719 0.139359 0.873993 0.898843 -0.253508 0.750960 -0.953873 0.424734 -0.189637 1.009629 0.973718 1.472511 0.208747 0.359911 0.021676 0.426615 -0.637700 0.565160 -0.753617 -0.034041 0.140790 0.003295 1.408435 -0.420073 0.190885 0.149199 -0.858028 -0.125985 0.139133 -0.072063 -0.915243 0.880559 -0.613843 0.496573 0.253890 0.470359 0.473678 -0.903898 0.057690 0.337631 0.110260 0.080648 -0.758845 0.664027 0.535102 -0.347283 1.130384 0.716460 0.225327 -0.349517 -0.648032
3521 -0.327440 -0.085257 -0.268631 0.492080 -0.052131 0.180044 -0.526843 -0.670388 0.713117 0.380052 0.272778 0.441920 -0.386690 0.293660 0.513124 -0.530734 0.258824 -1.211951 0.602674 -0.192791 0.511322 1.150663 -0.139353 0.732912 -0.414279 -0.045505 -0.883866 -0.542092 0.454219 0.150991 0.318532 -1.114068 -0.631767 -0.603627 -0.157882 0.477655 -0.973526 0.454945 0.645309 0.329802 0.463613 -0.575305 1.026575 0.558976 0.982947 0.223432 -0.399229 -0.778497 0.132868 -0.319690
3082 0.693632 0.151515 1.036705 0.146330 -0.477919 -0.900300 -0.689727 0.046882 0.638333 -0.145580 0.167588 0.576912 -0.061417 0.443126 0.446554 0.496548 0.061510 -0.498680 -0.520199 -0.478920 -0.201540 1.084404 -0.539028 0.668800 -0.143297 -0.600305 -0.670139 -0.419143 0.513467 -0.273116 1.199750 0.096654 0.212817 -0.359969 0.295524 -0.026392 -0.322296 0.553187 -0.185869 0.459490 0.288000 0.058448 0.333702 -0.292245 0.107796 -0.548680 0.156513 -0.162286 -0.618987 -0.678987
1613 0.257648 0.442979 0.878186 -0.357982 0.332080 0.064947 -0.308910 -0.616766 0.579638 0.566963 0.742465 -0.333669 -0.363387 -0.336690 0.349582 0.136889 -0.661086 0.296845 0.656179 0.076305 0.042291 0.810023 -0.111623 0.865637 -0.614195 0.001946 -0.145945 -0.206942 -0.073093 -0.552207 0.719426 0.174793 0.386782 -0.241106 0.000643 0.731633 0.391395 0.553934 -0.217724 0.105696 0.044759 -0.557011 -0.037058 -0.068409 -0.357929 0.949253 0.527047 -0.942040 -0.032602 0.109340
315 -0.174137 -0.122351 -0.243580 -0.625743 0.068908 -1.085094 -0.125260 -0.915020 0.622122 0.272457 0.672228 -0.388099 0.078752 -0.237946 0.192456 -0.228364 0.808105 0.047193 0.310873 -0.514957 -0.096548 0.460278 -0.096426 1.131449 -0.453829 -1.073698 -0.189279 -1.117957 -0.671761 -0.680704 0.525771 -0.228834 -0.108371 -0.699048 0.016476 0.326583 -0.690455 0.298433 0.954564 0.217725 -0.725593 0.210059 0.327961 0.221165 -0.429008 0.364152 -0.423429 -0.759173 -0.277352 0.194566
3320 0.731777 0.171185 0.966337 0.114920 -0.460424 -0.916266 -0.617930 0.008228 0.609603 -0.150572 0.191323 0.511520 -0.121193 0.473601 0.426756 0.478328 0.012813 -0.525416 -0.520971 -0.516580 -0.123320 1.003997 -0.465066 0.731675 -0.184999 -0.517033 -0.658757 -0.492863 0.456656 -0.330512 1.265285 0.191228 0.143000 -0.383211 0.311557 -0.096950 -0.250251 0.605353 -0.207600 0.413610 0.163034 0.011399 0.208058 -0.252717 0.029855 -0.407575 0.140690 -0.217576 -0.673978 -0.626306
3397 0.704403 0.089422 1.002170 0.145026 -0.412597 -0.846523 -0.649605 -0.013648 0.562059 -0.131855 0.108875 0.564528 -0.092809 0.421025 0.417753 0.450729 0.051224 -0.492846 -0.469197 -0.469498 -0.166488 0.974261 -0.501508 0.623813 -0.143436 -0.580282 -0.574959 -0.486613 0.519222 -0.304011 1.149293 0.092709 0.125665 -0.382523 0.336314 -0.056783 -0.261250 0.509176 -0.142051 0.447687 0.200594 0.063869 0.309383 -0.267123 0.089069 -0.505396 0.182001 -0.161378 -0.619582 -0.534662
1376 0.363442 0.288385 0.916582 -0.289734 0.286244 0.052239 -0.339781 -0.680975 0.589075 0.588906 0.660720 -0.219532 -0.393726 -0.508793 0.325736 0.288428 -0.726058 0.279214 0.549640 0.091726 -0.017102 0.865437 -0.011588 0.767887 -0.455930 -0.099236 -0.147799 -0.150104 -0.101916 -0.560090 0.660476 0.185083 0.232292 -0.229847 -0.045875 0.587590 0.525817 0.492177 -0.315503 0.281323 0.051885 -0.389462 -0.099029 -0.149310 -0.331634 0.730862 0.461490 -0.963383 0.020397 0.111285
3633 -0.096488 0.177811 0.279326 0.595417 0.317836 0.250868 -0.119235 -0.597279 0.529588 0.694556 -0.022899 0.556535 -0.188166 0.475346 0.494897 -0.426303 0.646654 -0.903944 0.403133 -0.220454 0.280566 1.182246 -0.108895 0.524000 -0.289164 0.147711 -0.256439 -0.144852 0.572339 -0.259646 0.260838 -0.743054 -0.939181 -0.218425 -0.353496 0.557293 -0.861426 0.233493 -0.030603 0.107673 0.368373 -0.549271 0.914039 -0.040279 0.896837 0.589091 -0.049038 -1.418304 -0.060860 -0.360879
1377 0.299488 0.347787 0.898666 -0.290109 0.301675 0.017974 -0.339493 -0.639567 0.620862 0.525202 0.648510 -0.317313 -0.384004 -0.427058 0.402016 0.237051 -0.659797 0.240140 0.532590 0.102535 0.093666 0.786173 -0.050195 0.763112 -0.526538 -0.029697 -0.125574 -0.252042 -0.117035 -0.571856 0.658086 0.204162 0.373428 -0.225764 -0.005972 0.622224 0.498354 0.548219 -0.214527 0.123576 0.003604 -0.403548 -0.082898 -0.068596 -0.332362 0.824897 0.613636 -0.977872 -0.002639 0.089947
200 0.078996 -0.091793 -0.087696 -0.637024 0.183954 -1.233820 -0.124455 -1.066144 0.672654 0.060280 0.580001 -0.520274 -0.128558 -0.291815 0.373445 -0.148691 0.798891 0.011159 0.528498 -0.579565 -0.072289 0.436341 -0.068000 1.323427 -0.617383 -1.029037 -0.114849 -1.134752 -0.810572 -0.426312 0.491316 -0.256928 -0.082437 -0.709548 0.003189 0.210191 -0.690287 0.483646 0.943707 0.030730 -0.670642 0.259968 0.439278 0.014469 -0.606968 0.284008 -0.313169 -0.813042 -0.379757 0.307886
917 0.548278 0.634874 0.518249 0.254706 0.657631 -0.668471 -0.444737 -1.261194 0.806735 -0.392914 0.761389 -0.171461 -0.258985 0.183336 0.527474 -0.142817 -0.561156 -0.583660 0.317502 0.503536 0.668421 0.389257 0.686597 -0.093297 0.066623 -0.119726 -0.293170 -0.565728 -0.078120 -0.423227 0.029717 -0.222686 0.368029 -0.435106 -0.106986 0.608834 0.598158 0.138130 0.488023 -0.134773 -0.251518 -0.200311 0.518556 -0.029491 0.076003 0.425549 0.700115 -0.766390 -0.067597 0.201448
9 0.097902 -0.093431 -0.080419 -0.642311 0.144386 -1.208624 -0.148383 -1.052617 0.709822 0.062568 0.616972 -0.456649 -0.086826 -0.349916 0.354439 -0.126155 0.814439 0.027075 0.473819 -0.572226 -0.143431 0.478714 -0.051583 1.289651 -0.616200 -1.084896 -0.144290 -1.125416 -0.807993 -0.421897 0.502751 -0.230071 -0.070329 -0.698630 -0.002687 0.213591 -0.700295 0.431943 0.913184 0.125721 -0.675406 0.234000 0.390739 0.058508 -0.581942 0.215616 -0.322986 -0.803032 -0.377658 0.273378
1612 0.353545 0.451178 0.964611 -0.302071 0.388909 -0.029429 -0.291760 -0.661239 0.573046 0.602879 0.762312 -0.280987 -0.402414 -0.320417 0.267047 0.168723 -0.701707 0.250564 0.680116 0.111795 0.097672 0.810451 -0.079429 0.842818 -0.567237 -0.001654 -0.063828 -0.315922 -0.072604 -0.647862 0.699312 0.140207 0.370591 -0.278170 0.082905 0.717139 0.414698 0.600479 -0.186648 0.075945 -0.030706 -0.528969 -0.068850 -0.078154 -0.365570 1.004067 0.620369 -0.909566 -0.058401 0.159800
412 -0.215424 -0.284541 0.373146 0.041208 -0.009129 -0.462863 -0.160667 -0.775170 0.843539 0.321102 0.275423 -0.118147 -0.100494 -0.653763 0.697029 0.643264 0.258959 -0.515938 -0.367943 0.068699 0.537541 0.824084 0.138030 0.578018 0.263746 -0.485462 -0.221164 -0.051293 -0.515503 -0.110475 0.271647 -0.529294 0.144118 -0.181719 -0.411791 0.010918 0.340562 0.508726 -0.120932 -0.284387 -0.150663 0.408242 0.259560 0.170438 -0.070556 0.091845 0.697085 -1.269048 0.454640 -0.752415
1707 0.216228 0.361142 0.873302 -0.317170 0.419591 0.042825 -0.244794 -0.613940 0.556914 0.594134 0.678139 -0.351606 -0.401513 -0.315910 0.354976 0.144266 -0.585664 0.224000 0.602430 0.063078 0.167507 0.758538 -0.111136 0.836737 -0.602686 0.056720 -0.119912 -0.256809 -0.089971 -0.581331 0.668779 0.113760 0.438070 -0.226021 0.020091 0.692994 0.419866 0.638402 -0.210773 -0.010272 0.015543 -0.523469 -0.000418 -0.029482 -0.350074 1.038801 0.676894 -0.943662 -0.008949 0.128053
2742 0.668869 0.116632 0.942316 0.193791 -0.425418 -1.032206 -0.622749 0.086451 0.629372 -0.188236 0.143688 0.565728 -0.025409 0.507327 0.467365 0.427984 0.195026 -0.543325 -0.528336 -0.499763 -0.217281 1.026336 -0.527844 0.707006 -0.100215 -0.626619 -0.667203 -0.442043 0.505773 -0.270454 1.143342 0.069885 0.172112 -0.365094 0.248226 -0.039169 -0.362969 0.547923 -0.128411 0.449048 0.256128 0.075429 0.334208 -0.252961 0.094624 -0.559897 0.112497 -0.126253 -0.630992 -0.667708
1399 0.171166 0.329428 0.787539 -0.342662 0.362767 0.059123 -0.234828 -0.672754 0.610504 0.602960 0.658207 -0.391131 -0.383259 -0.455774 0.378778 0.209504 -0.528498 0.294693 0.575770 0.079481 0.071555 0.788998 -0.093225 0.870794 -0.520918 -0.006390 -0.120337 -0.198247 -0.188941 -0.528869 0.649941 0.056637 0.386131 -0.179923 -0.067673 0.634901 0.471089 0.571340 -0.273548 0.022487 0.006312 -0.445295 -0.013838 -0.029179 -0.362080 0.951568 0.614984 -1.021608 0.122561 0.035435
304 -0.034118 -0.065583 -0.161648 -0.630280 0.091981 -1.121562 -0.125201 -1.000797 0.634074 0.139820 0.683513 -0.400598 0.051758 -0.328904 0.291907 -0.128405 0.819300 0.036094 0.354667 -0.493962 -0.165065 0.459122 -0.047511 1.159429 -0.493858 -1.121058 -0.167934 -1.007913 -0.783269 -0.420013 0.427726 -0.233215 -0.033038 -0.640954 -0.066784 0.231034 -0.701775 0.325333 0.871478 0.149677 -0.641800 0.190449 0.310641 0.143323 -0.486772 0.208317 -0.385404 -0.743297 -0.274922 0.219761
1078 0.219414 0.386599 0.878678 -0.386951 0.394594 0.058166 -0.259401 -0.649977 0.573159 0.683373 0.724823 -0.339589 -0.361074 -0.338176 0.356431 0.146714 -0.599350 0.323442 0.660735 0.069331 0.011212 0.837225 -0.119001 0.931471 -0.634191 0.019606 -0.136089 -0.218437 -0.088200 -0.573715 0.715054 0.164317 0.361615 -0.216589 -0.037591 0.707203 0.383221 0.589148 -0.291507 0.101573 0.008967 -0.586786 -0.021289 -0.074521 -0.373065 1.047460 0.535747 -0.972663 -0.008243 0.180951
1941 0.040308 0.655752 -0.197785 0.017683 -0.101249 -0.827129 -0.499295 -0.764279 0.676163 -0.175871 0.959175 -0.404062 0.421958 0.069044 0.265164 -0.088361 -0.186815 0.350615 0.525550 0.255694 -0.844214 0.855223 -0.227616 1.014737 -0.138759 -0.828485 -0.268661 -0.325858 -0.130432 -0.101199 0.409615 0.275541 -0.059149 -0.506553 -0.618857 0.189533 -0.285492 -0.142405 -0.522736 0.148789 0.079496 -0.138045 0.077496 -0.608001 -0.143778 -0.186072 -0.827385 -0.864860 -0.340077 -0.380833
1277 0.289382 0.494992 0.266643 0.425204 0.359886 -0.189686 -0.976802 -0.860159 1.028690 -0.377675 0.624090 -0.349701 -0.035987 -0.039181 0.709123 -0.030388 -0.474827 -0.500235 0.053675 0.408053 0.747239 0.555650 0.305232 0.232305 -0.253130 -0.232859 -0.650325 -0.529338 0.239049 -0.229957 -0.144148 0.320632 0.697703 -0.349318 -0.347975 0.484637 0.290362 0.016704 0.572568 -0.158373 0.062902 0.112832 0.331912 0.017689 0.318407 0.136340 0.921338 -1.261352 -0.420534 0.008628
3756 -0.106273 0.100830 0.241701 0.589576 0.262357 0.213741 -0.172002 -0.543718 0.532999 0.678988 -0.119587 0.529139 -0.158349 0.464267 0.467126 -0.318410 0.657755 -0.894947 0.365862 -0.276385 0.307967 1.193464 -0.098351 0.533080 -0.251872 0.093141 -0.328192 -0.158875 0.518847 -0.170284 0.266757 -0.710816 -0.858666 -0.276437 -0.400683 0.561710 -0.814029 0.288895 0.020749 0.105372 0.339662 -0.406872 0.904970 -0.015477 0.959156 0.439579 -0.070414 -1.387913 0.046945 -0.375059
517 -0.021448 -0.092430 0.516457 0.220982 -0.021671 -0.339481 -0.352779 -0.849003 0.913988 0.228054 0.295166 -0.201298 -0.316724 -0.620765 0.781389 0.646019 -0.017823 -0.419176 -0.250558 0.178021 0.504947 0.753066 0.173026 0.437547 0.245500 -0.253728 -0.284338 -0.096293 -0.427347 -0.170622 0.369215 -0.320387 0.227406 -0.164103 -0.330654 0.056120 0.714675 0.540005 -0.158059 -0.190338 -0.036784 0.281096 0.248303 0.065824 -0.002130 0.121299 0.822141 -1.341609 0.441520 -0.646264
2839 0.548168 -0.148130 0.829299 0.171428 0.628187 -0.995995 -0.715851 0.032276 0.639859 -0.146111 -0.246004 -0.058678 0.027716 0.257943 0.642832 0.027043 0.565523 -0.119520 0.186502 -0.137571 -0.739085 1.034204 -0.751796 0.943046 -0.204537 -0.408731 -0.720356 -0.163990 0.407261 0.011248 0.310007 -0.516155 0.754560 -0.202055 -0.079730 0.775637 0.196879 0.233355 0.220509 0.561348 0.814921 0.043794 1.261214 -0.022626 -0.154889 -0.457941 0.351192 -0.010177 -0.006538 -0.337128
637 0.088694 0.187025 0.535258 0.278322 0.225978 -0.219571 -0.488001 -0.690339 0.956870 0.039917 0.555463 -0.463286 -0.195075 -0.656888 0.608111 0.408989 -0.319511 -0.448627 -0.126314 0.226260 0.682841 0.542567 0.209925 0.347693 0.033256 -0.250809 -0.263128 -0.393083 -0.234572 -0.275724 0.027775 -0.091202 0.529596 -0.258788 -0.272539 0.259522 0.529741 0.462666 0.125613 -0.368413 0.032531 0.353302 0.119825 0.145519 0.013941 0.206671 1.241562 -1.362609 0.155647 -0.578271
824 0.148072 0.888964 0.907925 -0.260629 0.730403 -1.009247 0.406410 -0.175999 1.051059 0.912584 1.526765 0.168710 0.400692 -0.008437 0.386241 -0.608141 0.515405 -0.734245 -0.025668 0.157590 -0.021081 1.385213 -0.404811 0.188078 0.137534 -0.907533 -0.117436 0.149753 -0.107941 -0.910510 0.859074 -0.589422 0.605931 0.235818 0.472203 0.475235 -0.865736 0.048926 0.327031 0.107014 0.068601 -0.747514 0.623605 0.558434 -0.388263 1.117883 0.722129 0.290651 -0.345523 -0.651135
2951 0.512415 -0.046082 1.432365 0.069138 -0.317761 -0.397535 -0.636055 0.062504 0.691949 0.193858 0.143356 0.621457 0.102698 0.350521 0.303673 0.244648 0.227678 -0.254884 -0.064424 -0.663455 -0.064788 0.994166 -1.043590 0.427171 -0.578881 -0.624288 -0.519934 -0.406480 0.403398 -0.395513 1.302670 0.290511 0.211077 -0.448849 0.595266 0.246280 -0.109877 0.439375 -0.053512 0.519099 0.467627 -0.314922 0.344608 -0.047923 0.133074 -0.426617 0.224054 -0.044751 -0.506188 -0.420087
896 0.314456 0.513670 0.402976 0.396114 0.460081 -0.195690 -0.909981 -0.761214 0.969757 -0.339323 0.702234 -0.401446 -0.059875 -0.084381 0.600237 -0.110770 -0.528448 -0.457873 0.181517 0.349169 0.702405 0.474647 0.249252 0.243858 -0.335349 -0.204911 -0.564080 -0.614196 0.240554 -0.293658 -0.142519 0.305481 0.711944 -0.418742 -0.259591 0.574858 0.263577 0.113274 0.582518 -0.185178 0.088526 0.094785 0.280084 0.025633 0.225300 0.183960 0.989310 -1.187473 -0.453311 -0.015922
1610 0.258132 0.379129 0.870120 -0.378938 0.442586 0.025688 -0.279649 -0.643111 0.581340 0.673147 0.665627 -0.331242 -0.359427 -0.262303 0.342687 0.151193 -0.569594 0.284935 0.647455 0.068846 0.078515 0.825202 -0.159495 0.918848 -0.648740 0.019011 -0.089505 -0.316747 -0.031997 -0.638390 0.696253 0.175530 0.440820 -0.222214 0.039349 0.674826 0.347123 0.599787 -0.205824 0.015556 -0.042995 -0.586645 -0.016835 -0.066370 -0.334805 1.084391 0.643816 -0.956113 -0.061578 0.216337
3363 0.566323 -0.180432 0.837534 0.225396 0.654575 -1.018217 -0.666277 0.035365 0.632147 -0.141350 -0.251472 -0.057087 0.018423 0.274264 0.646498 -0.020319 0.622142 -0.198186 0.206977 -0.175333 -0.669872 1.015727 -0.744271 0.953516 -0.213001 -0.398482 -0.719364 -0.208674 0.425092 -0.034887 0.321320 -0.508540 0.697543 -0.212549 -0.094553 0.770978 0.190130 0.255022 0.244770 0.584973 0.780678 0.019008 1.255379 -0.012028 -0.168200 -0.435156 0.381789 -0.023438 -0.000978 -0.346745
2754 0.543111 -0.149016 0.828669 0.207965 0.486353 -1.097682 -0.684404 0.092613 0.654159 -0.177452 -0.209707 0.046638 0.043713 0.317878 0.641385 0.080603 0.645879 -0.192167 0.059993 -0.183245 -0.722103 1.044132 -0.759612 0.981661 -0.170483 -0.471928 -0.767413 -0.204950 0.402808 0.013115 0.406044 -0.498227 0.715082 -0.215290 -0.065093 0.680548 0.093395 0.303634 0.201573 0.557319 0.765580 0.088013 1.188502 -0.055987 -0.143644 -0.501245 0.320905 0.025226 -0.063982 -0.405543
1622 0.352153 0.404842 0.922406 -0.310426 0.382095 0.006383 -0.326841 -0.699948 0.598770 0.519019 0.738863 -0.355776 -0.421037 -0.376781 0.365654 0.161541 -0.682178 0.222254 0.620068 0.105071 0.109607 0.815521 -0.031216 0.750990 -0.530181 -0.017171 -0.135352 -0.237164 -0.081011 -0.583091 0.698731 0.150363 0.367166 -0.255410 0.032601 0.677314 0.511579 0.529425 -0.186171 0.147355 0.011090 -0.489058 -0.024547 -0.055342 -0.377375 0.876323 0.601405 -0.909195 -0.029349 0.120909
1714 0.298376 0.401012 0.816746 -0.275773 0.416656 0.078582 -0.356511 -0.684142 0.610782 0.575254 0.736663 -0.359483 -0.352069 -0.357053 0.340002 0.162743 -0.712950 0.259068 0.635210 0.123563 0.131191 0.833102 -0.065187 0.836774 -0.613358 -0.047753 -0.135773 -0.296240 0.007137 -0.595832 0.596513 0.249962 0.355372 -0.278748 -0.037514 0.632661 0.395279 0.521099 -0.217153 0.084842 -0.012965 -0.453802 -0.068191 -0.113145 -0.309454 0.944527 0.604746 -1.071439 -0.111839 0.172810
484 0.057474 0.051106 0.606693 0.014429 0.117607 -0.125958 -0.297728 -0.796164 0.810134 0.264975 0.346932 -0.300705 -0.357620 -0.592424 0.731129 0.556063 -0.299409 -0.275365 -0.099358 0.157632 0.485846 0.785685 0.217391 0.426183 0.108935 -0.114727 -0.216358 0.003802 -0.329423 -0.237309 0.388636 -0.216554 0.270747 -0.076791 -0.281378 0.185455 0.682367 0.499114 -0.216007 -0.167043 -0.014180 0.120046 0.219592 0.091638 -0.072716 0.331733 0.881150 -1.214208 0.400510 -0.523121
136 0.031970 0.251592 -0.388386 -0.556712 -0.199543 -0.852266 -0.207440 -0.997904 0.657100 0.092606 0.927817 -0.361473 0.372807 -0.323809 0.049892 -0.217942 0.315971 0.224689 0.327005 -0.107627 -0.848432 0.560856 0.025083 0.996408 -0.383663 -1.162778 -0.146044 -0.761874 -0.500264 -0.269173 0.485394 0.083687 -0.089781 -0.338723 -0.369783 0.217943 -0.687640 -0.243832 0.080693 0.645544 -0.479702 -0.115243 -0.301928 -0.146702 -0.192863 -0.035707 -0.706003 -0.803481 -0.407490 0.095963
925 0.312389 0.341999 0.853387 -0.320112 0.262064 0.074136 -0.330248 -0.632214 0.621775 0.603801 0.651208 -0.266870 -0.349027 -0.438493 0.356627 0.270511 -0.694958 0.267336 0.578253 0.109260 0.037318 0.862826 -0.061714 0.798806 -0.491317 -0.077044 -0.105278 -0.180720 -0.057102 -0.536945 0.660303 0.207443 0.294115 -0.226021 -0.015852 0.582633 0.475480 0.487181 -0.287457 0.191699 0.028883 -0.415101 -0.095987 -0.123113 -0.319724 0.794642 0.504022 -0.982038 -0.005269 0.089223
747 0.003081 0.855442 0.874806 -0.191018 0.697174 -0.803636 0.493585 -0.214086 1.008167 0.973038 1.313566 0.193678 0.388343 0.065707 0.395671 -0.640426 0.580220 -0.777964 -0.035530 0.198095 -0.032968 1.311417 -0.405004 0.216964 0.062408 -0.760509 -0.018960 0.136052 0.030125 -0.879294 0.780460 -0.693458 0.433493 0.342991 0.440767 0.465146 -1.042374 -0.023234 0.254237 0.055124 0.110822 -0.878085 0.749047 0.617442 -0.184516 1.094409 0.577437 0.136293 -0.334253 -0.729503
353 0.187681 -0.013930 0.412203 0.091326 0.185403 -0.262450 -0.372001 -0.998534 0.866108 0.080564 0.273987 -0.310350 -0.464694 -0.635586 0.772189 0.566784 -0.103325 -0.439436 -0.220507 0.104553 0.634350 0.762529 0.251657 0.346680 0.141738 -0.258489 -0.339569 -0.177271 -0.322408 -0.293637 0.326229 -0.361192 0.203863 -0.159504 -0.333914 0.005945 0.676466 0.396891 -0.149202 -0.169994 -0.073915 0.247526 0.305710 0.173043 -0.001145 0.182761 0.906732 -1.324895 0.402011 -0.584534
373 -0.187646 -0.181285 0.339419 0.184825 -0.029435 -0.518002 -0.273168 -0.801806 0.966898 0.179389 0.281365 -0.114390 -0.063334 -0.579160 0.807455 0.589744 0.305136 -0.642841 -0.449238 0.112930 0.538517 0.859530 0.157306 0.433387 0.366205 -0.486115 -0.325209 -0.046347 -0.464069 -0.084810 0.236371 -0.511545 0.223449 -0.134029 -0.465753 0.015109 0.357428 0.452934 -0.030806 -0.311217 -0.061642 0.425658 0.388100 0.174084 0.051514 0.007439 0.754360 -1.278663 0.407390 -0.869045
1551 0.206437 0.327720 0.924613 -0.343258 0.367352 0.088423 -0.283528 -0.640212 0.591115 0.581099 0.673969 -0.373756 -0.409508 -0.402377 0.457730 0.079586 -0.584094 0.235137 0.614972 0.050156 0.071468 0.781599 -0.107436 0.811170 -0.594144 0.036174 -0.169732 -0.214966 -0.124345 -0.550863 0.731677 0.141548 0.364446 -0.240889 0.004144 0.761203 0.539537 0.587249 -0.180486 0.132707 0.069239 -0.517350 0.003773 -0.004125 -0.357396 0.918673 0.606758 -0.990250 0.002268 0.101554
1471 0.273496 0.397411 0.888725 -0.335363 0.345281 0.093846 -0.265894 -0.650195 0.584746 0.607955 0.689974 -0.303641 -0.393583 -0.311274 0.359968 0.119608 -0.589527 0.302296 0.641945 0.056962 0.051305 0.817437 -0.120643 0.839069 -0.604777 0.037053 -0.126185 -0.218155 -0.074993 -0.585429 0.764173 0.139892 0.358230 -0.197521 0.019211 0.720554 0.430051 0.571119 -0.247334 0.133012 0.018339 -0.590113 -0.006957 -0.064693 -0.339813 0.988340 0.520884 -0.915639 0.023552 0.153644
2384 0.244305 0.451246 0.053782 -0.135108 -0.163253 -0.573653 -0.496796 -0.823639 0.844790 -0.007214 1.032455 -0.298645 0.337173 -0.447982 0.153127 -0.056240 -0.279481 0.374096 0.493673 0.153122 -0.896972 0.881019 0.121089 0.856101 -0.261137 -1.021666 -0.348924 -0.319135 -0.219831 -0.196225 0.326348 0.263742 -0.065306 -0.330646 -0.597021 0.296430 -0.448568 -0.248766 -0.277205 0.673221 0.149994 -0.101181 -0.017737 -0.482321 -0.048517 -0.284246 -0.701041 -0.847716 -0.245723 -0.177995
3793 0.179338 0.308326 0.116704 0.465826 0.027912 -0.043425 -0.232988 -0.652280 0.570468 -0.199175 0.511102 0.337965 -0.515593 -0.160747 -0.116767 0.144193 0.631930 -0.371513 0.769333 -0.816610 0.545338 1.270350 0.374075 0.392324 -0.868158 -0.115954 -0.611034 -0.317510 0.234765 -0.262426 0.162302 -0.750555 0.128687 -0.387230 -0.690147 0.656877 -1.287848 0.751998 0.312893 0.034779 0.284156 -0.655593 0.848830 0.069008 1.233908 -0.095906 -0.419876 -0.923375 0.019839 -0.698161
3116 0.731731 0.118900 0.912820 0.150950 -0.428844 -1.044783 -0.656772 0.039489 0.604671 -0.203744 0.140894 0.523369 -0.062433 0.481043 0.482569 0.492033 0.098584 -0.526635 -0.557984 -0.482696 -0.224113 1.018172 -0.453146 0.751640 -0.105854 -0.608786 -0.674376 -0.492294 0.522847 -0.283570 1.137431 0.101552 0.145339 -0.408151 0.236054 -0.082346 -0.324225 0.551639 -0.157653 0.461417 0.204094 0.126269 0.301494 -0.293672 0.047758 -0.584639 0.124814 -0.193190 -0.653736 -0.638445
563 -0.280664 -0.077116 0.345381 0.187575 -0.181246 -0.378858 -0.190441 -0.789970 0.806931 0.645137 0.309572 0.327683 -0.102654 -0.457312 0.870024 0.358005 0.351856 -0.700041 -0.356526 0.407038 0.357507 0.778179 0.237170 0.194741 0.627054 -0.258876 -0.054516 0.181353 -0.564926 -0.018368 0.264475 -0.424099 -0.191979 0.098633 -0.236721 0.127985 0.675672 0.200790 0.056758 0.145822 -0.303652 0.183313 -0.029887 -0.026860 0.149377 0.351133 0.172527 -1.154387 0.327042 -0.047918
946 0.377980 0.388004 0.900837 -0.336825 0.370721 -0.026264 -0.277792 -0.590509 0.534319 0.524550 0.633354 -0.292914 -0.376190 -0.299279 0.289207 0.232829 -0.647111 0.292041 0.589999 0.046849 0.046826 0.793913 -0.144329 0.796254 -0.563783 -0.032620 -0.107174 -0.271041 -0.051913 -0.614235 0.741775 0.194218 0.361000 -0.232040 0.082738 0.605905 0.440812 0.545315 -0.270146 0.126212 0.000313 -0.507634 -0.039246 -0.086750 -0.387898 0.882266 0.543124 -0.790799 -0.037599 0.127952
1783 0.258135 0.571670 0.554924 0.227329 0.511998 -0.287000 -0.622386 -1.107820 0.863823 -0.344706 0.761705 -0.338402 -0.262233 -0.014514 0.826866 -0.409006 -0.516892 -0.573216 0.309698 0.382991 0.680096 0.418049 0.484925 -0.026856 -0.133725 -0.025411 -0.512249 -0.394580 -0.017457 -0.276035 0.157961 0.002693 0.422776 -0.414956 -0.178856 0.810172 0.742626 0.091528 0.602978 0.049601 -0.040094 -0.236652 0.442838 0.090639 0.111480 0.342496 0.698625 -1.078985 -0.238548 0.174906
3426 0.534232 -0.177479 0.830222 0.171957 0.601284 -1.007373 -0.700474 0.007856 0.675077 -0.144707 -0.242056 -0.029713 0.052642 0.257507 0.625326 0.006400 0.658289 -0.126724 0.189454 -0.139909 -0.743038 1.037602 -0.813733 0.938807 -0.240419 -0.458520 -0.757299 -0.218454 0.378683 0.033115 0.313122 -0.530408 0.748206 -0.225434 -0.087030 0.787142 0.135853 0.234793 0.271525 0.541355 0.795311 0.065945 1.281104 -0.014080 -0.160733 -0.499934 0.336585 -0.026433 0.007570 -0.325526
3838 -0.097995 -0.061744 0.122565 0.620781 0.034807 0.031838 -0.327806 -0.553320 0.615428 0.573303 -0.148809 0.587654 0.025703 0.623617 0.613745 -0.191996 1.010052 -0.838184 0.432828 -0.357776 0.035001 1.161789 -0.310853 0.844193 -0.216731 -0.069340 -0.300351 -0.084322 0.425591 -0.072230 0.243285 -0.698678 -0.845187 -0.387347 -0.542782 0.475391 -0.931874 0.161639 -0.039463 -0.010676 0.343356 -0.138004 0.965476 -0.212905 0.965610 0.236640 -0.331404 -1.473362 0.014380 -0.533338
1059 0.253349 0.369944 0.859167 -0.329953 0.278880 0.038297 -0.332422 -0.661044 0.623273 0.580835 0.693096 -0.335934 -0.361755 -0.398970 0.398987 0.261523 -0.660615 0.252527 0.544747 0.091312 0.124183 0.852941 -0.106951 0.884816 -0.558819 -0.056273 -0.153685 -0.235483 -0.081114 -0.563297 0.747137 0.218007 0.388059 -0.275345 0.005685 0.622357 0.519578 0.587832 -0.271657 0.057703 -0.015478 -0.443381 -0.113397 -0.087519 -0.377932 0.922936 0.596238 -1.086262 -0.047582 0.076899
2863 0.621069 -0.023794 0.913711 0.154277 -0.429897 -0.972562 -0.632846 0.034368 0.629232 -0.165646 0.080914 0.538477 0.061143 0.409955 0.470367 0.443200 0.247040 -0.467845 -0.531407 -0.500018 -0.239347 0.963975 -0.561308 0.704064 -0.163403 -0.720543 -0.613964 -0.468308 0.496400 -0.244830 1.071078 0.027603 0.232977 -0.402808 0.233412 -0.013566 -0.380031 0.483819 -0.051265 0.434423 0.234607 0.126647 0.376068 -0.223338 0.050430 -0.671542 0.115198 -0.112629 -0.598359 -0.615389
1391 0.335151 0.400225 0.883104 -0.330041 0.429396 -0.045594 -0.254744 -0.656341 0.539934 0.573677 0.640008 -0.316155 -0.412936 -0.271961 0.318394 0.146521 -0.581267 0.232381 0.628249 0.083295 0.085819 0.760315 -0.116942 0.810329 -0.547874 0.036942 -0.061515 -0.322638 -0.090122 -0.618986 0.693180 0.105907 0.364561 -0.220586 0.086569 0.634146 0.415789 0.587470 -0.186042 0.033688 -0.050081 -0.511013 0.009649 -0.044181 -0.350032 0.995546 0.641184 -0.855304 -0.015455 0.179563
823 0.057555 0.860214 0.918912 -0.211436 0.710907 -0.851123 0.463331 -0.223407 1.039388 0.948737 1.351887 0.177382 0.379722 0.031821 0.398110 -0.641118 0.556001 -0.755701 -0.018343 0.184504 -0.022221 1.347470 -0.399458 0.195428 0.053220 -0.791104 -0.065325 0.131281 -0.003697 -0.921065 0.802552 -0.658954 0.521290 0.302673 0.439326 0.480309 -0.982566 0.012824 0.278142 0.069496 0.091197 -0.832421 0.719291 0.635784 -0.232718 1.122633 0.650784 0.171018 -0.336595 -0.709271
1813 0.319564 0.211181 0.924778 -0.232216 0.247430 0.202515 -0.300294 -0.607743 0.572491 0.621123 0.455341 -0.191875 -0.485401 -0.432908 0.434326 0.223818 -0.581077 0.148258 0.513591 -0.003562 0.015142 0.865854 -0.066378 0.619784 -0.420013 0.083402 -0.118402 -0.115010 -0.015617 -0.515604 0.717692 0.101690 0.124691 -0.162214 -0.026392 0.558239 0.569017 0.510565 -0.350060 0.285171 0.104673 -0.469449 0.020573 -0.099028 -0.167454 0.738234 0.532166 -0.982807 0.106757 0.041953
3948 -0.157431 0.094040 0.187144 0.544314 0.269383 0.212829 -0.149778 -0.628097 0.530122 0.701796 -0.016164 0.584706 -0.224506 0.432027 0.511080 -0.461591 0.638209 -0.944880 0.429590 -0.229980 0.269641 1.203604 -0.109323 0.587748 -0.275919 0.167372 -0.252633 -0.237954 0.496835 -0.200149 0.256134 -0.848099 -0.966141 -0.247557 -0.346328 0.600015 -0.825876 0.287616 0.093929 0.129162 0.355993 -0.565961 0.889285 0.049860 0.874864 0.611203 -0.110338 -1.396587 -0.035220 -0.303723
1367 0.280322 0.372805 0.799404 -0.372956 0.327692 -0.015406 -0.296219 -0.674534 0.603119 0.524586 0.719755 -0.385824 -0.370647 -0.455549 0.335326 0.227412 -0.639102 0.317980 0.576545 0.097099 0.022587 0.793535 -0.046584 0.845678 -0.525966 -0.073049 -0.111882 -0.225137 -0.172307 -0.544059 0.675999 0.152892 0.353214 -0.212580 -0.029524 0.602866 0.469801 0.497817 -0.234958 0.106653 -0.020078 -0.428802 -0.057275 -0.060310 -0.407232 0.826977 0.525434 -0.918897 0.054436 0.081765
3051 0.640806 0.150025 1.038925 0.097143 -0.457021 -0.765884 -0.607112 0.078557 0.586276 -0.065867 0.194850 0.536179 -0.051431 0.451392 0.402803 0.443131 -0.009856 -0.441682 -0.451273 -0.514637 -0.130714 1.013958 -0.553602 0.649415 -0.248133 -0.509468 -0.611767 -0.405820 0.454099 -0.294038 1.240038 0.234742 0.169402 -0.349192 0.355612 -0.026748 -0.228239 0.555363 -0.218108 0.440662 0.254676 -0.037817 0.212720 -0.236295 0.058524 -0.417156 0.160519 -0.158626 -0.633766 -0.616812
3611 -0.063862 -0.044236 0.157958 0.680328 0.074729 0.018468 -0.295492 -0.571871 0.622760 0.590833 -0.201221 0.591370 0.025742 0.621540 0.605352 -0.176751 1.069505 -0.819970 0.374887 -0.349355 0.016262 1.211981 -0.331875 0.840748 -0.208713 -0.073179 -0.224820 -0.101496 0.451646 -0.076615 0.249916 -0.666126 -0.892189 -0.364692 -0.563358 0.446191 -0.882090 0.156712 -0.114563 0.031056 0.303257 -0.090898 0.950525 -0.263917 0.990858 0.249907 -0.332168 -1.544905 -0.050391 -0.547798
2719 0.784487 0.186726 0.965428 0.117460 -0.443703 -0.890445 -0.677215 -0.008769 0.624374 -0.201884 0.150727 0.498704 -0.144784 0.436604 0.460408 0.502366 -0.082056 -0.539675 -0.561506 -0.454092 -0.191881 1.061555 -0.408302 0.647725 -0.125777 -0.516026 -0.675360 -0.443429 0.532326 -0.255877 1.181062 0.143826 0.146881 -0.354269 0.275591 -0.105589 -0.223401 0.514624 -0.222055 0.461875 0.211535 0.104571 0.292677 -0.296285 0.095742 -0.527157 0.154032 -0.210893 -0.646286 -0.669291
1839 0.289558 0.420334 0.860359 -0.275937 0.428787 0.042781 -0.314969 -0.590594 0.516498 0.524503 0.720358 -0.310780 -0.352209 -0.204887 0.298486 0.033790 -0.648111 0.216572 0.649069 0.085933 0.089652 0.718728 -0.072788 0.739629 -0.596376 0.067825 -0.121384 -0.279589 -0.000081 -0.567632 0.611678 0.192106 0.373889 -0.219811 0.031927 0.710931 0.352586 0.494062 -0.136024 0.094184 0.026737 -0.537764 0.020770 -0.084943 -0.280953 0.952278 0.552718 -0.822919 -0.113987 0.217031
1211 0.230652 0.354716 0.887597 -0.293883 0.270117 0.175035 -0.371088 -0.629009 0.630273 0.596663 0.690957 -0.287806 -0.347103 -0.399510 0.405809 0.198449 -0.671221 0.263412 0.597331 0.079482 0.074933 0.867952 -0.091505 0.836679 -0.615324 0.003287 -0.192861 -0.173493 -0.020341 -0.534359 0.705010 0.244153 0.373153 -0.197576 -0.067128 0.666724 0.437639 0.529036 -0.271677 0.156277 0.090620 -0.517830 -0.059489 -0.087880 -0.265583 0.872924 0.563833 -1.048553 -0.020831 0.106235
3280 0.729091 0.091376 0.929465 0.208986 -0.444376 -0.994143 -0.621794 0.043282 0.624135 -0.183575 0.142875 0.531063 -0.050842 0.476909 0.470632 0.458456 0.087256 -0.564835 -0.522243 -0.501388 -0.150660 0.974582 -0.435615 0.700859 -0.139814 -0.567721 -0.643875 -0.490021 0.510734 -0.309464 1.143592 0.132497 0.144747 -0.390054 0.262472 -0.056987 -0.293595 0.544496 -0.125868 0.439799 0.195615 0.091650 0.297555 -0.270238 0.076640 -0.557713 0.144938 -0.176630 -0.656098 -0.615673
363 0.213572 0.004709 0.451113 0.096733 0.240846 -0.385371 -0.279211 -0.901969 0.853065 0.115913 0.374367 -0.367004 -0.395891 -0.671974 0.704184 0.514655 -0.082188 -0.508039 -0.232339 0.103325 0.551435 0.730817 0.140018 0.337213 0.154416 -0.331998 -0.258058 -0.242831 -0.310280 -0.318156 0.372927 -0.453011 0.165293 -0.221680 -0.230345 -0.057807 0.665441 0.425901 -0.218695 -0.136010 -0.071978 0.284989 0.280462 0.175154 -0.063303 0.147502 0.928257 -1.235250 0.436847 -0.632465
830 0.112945 0.839852 0.889015 -0.221230 0.729884 -0.863572 0.454108 -0.156701 1.015581 0.976467 1.390342 0.235375 0.371462 0.030137 0.382622 -0.655845 0.585957 -0.796883 -0.014367 0.123888 -0.024170 1.426930 -0.395520 0.157730 0.132206 -0.806321 -0.098883 0.189902 -0.013302 -0.889231 0.820256 -0.679200 0.467966 0.301236 0.448480 0.487871 -0.986842 0.023634 0.311065 0.105581 0.110359 -0.796753 0.704337 0.613496 -0.229009 1.119591 0.693177 0.227303 -0.311544 -0.679161
745 0.149051 0.887210 0.880811 -0.238555 0.733232 -0.938420 0.417271 -0.172484 1.002120 0.947137 1.504261 0.189994 0.348383 -0.004439 0.410781 -0.621090 0.548053 -0.748003 -0.016377 0.139114 0.015232 1.382560 -0.393547 0.183682 0.167795 -0.867332 -0.147090 0.154557 -0.061051 -0.904280 0.839745 -0.607466 0.481249 0.248129 0.464354 0.455261 -0.894653 0.046303 0.310782 0.127705 0.085413 -0.760931 0.648192 0.524274 -0.334771 1.107637 0.701991 0.253583 -0.340048 -0.635997
1799 0.327157 0.407911 0.829695 -0.291391 0.423164 0.034515 -0.308730 -0.691691 0.584142 0.593180 0.681784 -0.295677 -0.410087 -0.320843 0.355859 0.170253 -0.628487 0.228501 0.644266 0.101431 0.119410 0.812114 -0.076840 0.810011 -0.555442 0.004360 -0.107293 -0.257869 -0.033528 -0.595051 0.653587 0.144642 0.324843 -0.250008 0.011798 0.641397 0.443453 0.522547 -0.224466 0.075679 -0.027194 -0.494198 -0.028469 -0.082253 -0.321351 0.975186 0.574093 -0.985010 -0.038125 0.157675
2266 -0.108494 0.866035 -0.195223 0.164121 -0.020235 -0.906026 -0.457640 -0.633089 0.579726 -0.218554 1.000363 -0.461841 0.413712 0.445502 0.466498 -0.031508 -0.185376 0.108554 0.520934 0.382831 -0.644053 0.987218 -0.479150 1.016309 0.048690 -0.567848 -0.226562 -0.123510 0.006831 0.019786 0.417159 0.140861 0.049664 -0.510919 -0.586753 0.211407 -0.132257 0.039981 -0.772920 -0.253666 0.190927 -0.198395 0.274310 -0.619727 -0.103333 -0.023710 -0.727089 -0.936551 -0.265350 -0.661056
3506 0.136208 0.340653 0.152624 0.426481 0.028288 0.005268 -0.191686 -0.616153 0.592125 -0.119040 0.581178 0.350783 -0.515936 -0.113957 -0.187805 0.162684 0.601982 -0.368494 0.738005 -0.919144 0.586271 1.237647 0.507248 0.442236 -0.804737 -0.170429 -0.601450 -0.246876 0.142743 -0.321448 0.145301 -0.750116 0.123717 -0.382952 -0.737718 0.698917 -1.303920 0.720663 0.359814 -0.042730 0.199393 -0.745886 0.748121 0.120833 1.195336 0.064324 -0.307432 -0.938947 0.118546 -0.578326
697 0.045351 0.827487 0.829789 -0.189036 0.706472 -0.852352 0.427191 -0.181252 0.977201 0.926301 1.351245 0.199906 0.373257 0.059373 0.378846 -0.645713 0.580110 -0.758434 -0.006864 0.162216 -0.008082 1.339309 -0.396226 0.185812 0.102278 -0.790772 -0.093024 0.145450 -0.005628 -0.851369 0.791724 -0.648238 0.442415 0.270085 0.432954 0.440609 -0.964698 0.001728 0.296057 0.075037 0.105524 -0.793574 0.711754 0.573727 -0.230752 1.077482 0.638524 0.217460 -0.319639 -0.666403
3154 0.524523 -0.000567 1.257629 -0.066023 -0.367981 -0.459988 -0.651894 0.089477 0.615975 0.097506 0.163784 0.542069 0.024024 0.277067 0.325150 0.385227 0.070621 -0.144552 -0.182271 -0.576139 -0.144136 0.973575 -0.880593 0.559462 -0.520576 -0.567898 -0.597684 -0.392803 0.325552 -0.310128 1.259722 0.310189 0.308953 -0.400613 0.485397 0.168630 -0.084668 0.525480 -0.157285 0.487063 0.390482 -0.148540 0.238833 -0.107689 0.026503 -0.440121 0.200193 -0.090874 -0.503577 -0.466736
3877 -0.055220 0.049014 0.158202 0.608248 0.284135 0.205935 -0.203556 -0.633688 0.543014 0.735640 -0.109300 0.555905 -0.193170 0.507148 0.510188 -0.329423 0.663485 -0.917677 0.464004 -0.229925 0.199874 1.239928 -0.168637 0.637602 -0.269562 0.148794 -0.234566 -0.233362 0.553551 -0.159294 0.285699 -0.685447 -0.957346 -0.346516 -0.362658 0.500245 -0.670018 0.266412 0.009838 0.192935 0.311052 -0.395990 0.856765 -0.053797 0.977109 0.546974 -0.151741 -1.442846 -0.064600 -0.236984
559 -0.111714 -0.149411 0.515583 0.230342 -0.023576 -0.418747 -0.334715 -0.852511 0.952859 0.209708 0.326706 -0.128583 -0.186009 -0.593192 0.749483 0.735730 0.016068 -0.525467 -0.310901 0.189720 0.565411 0.884033 0.280466 0.473735 0.319731 -0.385416 -0.293586 -0.019513 -0.417742 -0.090519 0.241554 -0.416975 0.245134 -0.157265 -0.457498 0.079910 0.475758 0.550517 -0.147827 -0.255116 -0.027930 0.356716 0.347544 0.039666 0.053470 0.062445 0.805417 -1.380311 0.450797 -0.751165
3593 0.212523 0.327481 0.185204 0.479605 0.038296 -0.055560 -0.137420 -0.653071 0.577374 -0.222331 0.517741 0.308265 -0.513302 -0.240889 -0.146761 0.297537 0.735462 -0.287080 0.675669 -0.860222 0.588729 1.261288 0.463588 0.350863 -0.827438 -0.183766 -0.555088 -0.182500 0.140009 -0.306543 0.123749 -0.718777 0.155389 -0.283864 -0.796619 0.656317 -1.243936 0.752798 0.202185 -0.057268 0.216835 -0.612004 0.810450 0.030268 1.209067 -0.080579 -0.305970 -1.015005 0.074836 -0.780297
3090 0.544506 -0.186119 0.871913 0.145669 0.601019 -0.979577 -0.641961 0.045241 0.642388 -0.063074 -0.261424 0.017908 0.009925 0.236852 0.591359 0.020717 0.637505 -0.112477 0.220976 -0.176897 -0.707478 0.984653 -0.814903 0.932451 -0.257602 -0.370755 -0.701069 -0.235505 0.387697 -0.039754 0.360004 -0.473421 0.741674 -0.209722 -0.010728 0.745575 0.127202 0.262724 0.240914 0.536192 0.737414 0.051765 1.261296 -0.000639 -0.195507 -0.407188 0.355478 0.046864 -0.008584 -0.277158
366 0.248774 0.059448 0.357371 0.094381 0.150094 -0.233307 -0.435301 -1.012422 0.892895 0.031205 0.275632 -0.410699 -0.476160 -0.606288 0.831446 0.573664 -0.174594 -0.348824 -0.191894 0.136567 0.541394 0.779014 0.169811 0.381495 0.096444 -0.229911 -0.374387 -0.195987 -0.311473 -0.275528 0.390048 -0.259760 0.269759 -0.168346 -0.338649 0.033615 0.815822 0.408216 -0.215387 -0.113162 -0.041422 0.233667 0.317876 0.160144 -0.023276 0.174374 0.917349 -1.364735 0.446558 -0.558604
3584 0.189103 0.256418 0.244442 0.357797 -0.096833 -0.020204 -0.233831 -0.652593 0.580834 -0.189562 0.541067 0.386008 -0.529328 -0.134403 -0.117520 0.192788 0.663149 -0.311463 0.773931 -0.876138 0.510407 1.123296 0.504748 0.393655 -0.776787 -0.077140 -0.555537 -0.246581 0.118747 -0.396328 0.154470 -0.738636 0.165326 -0.349514 -0.715186 0.705433 -1.280980 0.664136 0.366167 -0.098285 0.266616 -0.753406 0.714000 0.037057 1.193749 -0.034413 -0.365808 -1.004096 0.114154 -0.638741
513 -0.143303 -0.185695 0.350855 0.212570 -0.054810 -0.394471 -0.342068 -0.832110 0.935513 0.164399 0.346867 -0.161318 -0.207115 -0.642317 0.722795 0.674105 0.169141 -0.515176 -0.278009 0.134369 0.592875 0.799837 0.244754 0.515040 0.209770 -0.419834 -0.355687 -0.063377 -0.434710 -0.095844 0.227244 -0.525821 0.204112 -0.198818 -0.500819 0.026995 0.339158 0.475710 -0.077904 -0.267530 -0.046762 0.336266 0.351735 0.115391 0.083827 -0.045557 0.683110 -1.382928 0.529874 -0.729204
3434 0.664409 0.157637 0.973197 0.141768 -0.437050 -0.905747 -0.635589 0.078849 0.608849 -0.148522 0.190601 0.553541 -0.058626 0.470534 0.451778 0.464382 0.066704 -0.496048 -0.504170 -0.483636 -0.188802 1.067806 -0.514636 0.711930 -0.151997 -0.534226 -0.674579 -0.446339 0.502466 -0.252161 1.179739 0.138213 0.158754 -0.379025 0.269820 -0.028901 -0.292227 0.558261 -0.252482 0.425397 0.267534 0.058423 0.285062 -0.258859 0.088626 -0.503203 0.135888 -0.194912 -0.612128 -0.699176
3330 0.627252 0.074091 1.050115 0.171522 -0.476751 -0.856185 -0.646787 -0.028065 0.648809 -0.130664 0.194634 0.549151 0.042720 0.437952 0.452263 0.401911 0.108617 -0.540186 -0.455923 -0.544099 -0.080108 0.969436 -0.590518 0.594571 -0.216787 -0.697573 -0.562481 -0.495103 0.535258 -0.342362 1.195060 0.172941 0.127041 -0.453804 0.344390 -0.043753 -0.354668 0.473052 -0.080159 0.425503 0.206365 0.024963 0.278707 -0.229342 0.112419 -0.606799 0.178455 -0.185441 -0.686048 -0.576349
2944 0.536615 -0.159117 0.898858 0.200562 0.579405 -0.999503 -0.674893 0.086533 0.660293 -0.097113 -0.240393 0.030672 0.048756 0.287156 0.609941 -0.011694 0.656343 -0.179052 0.186118 -0.201687 -0.696495 1.024107 -0.812711 0.915406 -0.235481 -0.426149 -0.724365 -0.200408 0.410931 -0.029884 0.366126 -0.486852 0.725101 -0.194695 -0.023923 0.772516 0.115233 0.265859 0.254296 0.578652 0.811677 0.001040 1.239854 -0.001375 -0.134566 -0.456983 0.360037 0.019947 -0.037769 -0.342721
1554 0.280719 0.365541 0.901899 -0.317422 0.282094 0.092783 -0.353738 -0.620599 0.630702 0.571993 0.688499 -0.322674 -0.388627 -0.414588 0.349595 0.220155 -0.685271 0.266838 0.599876 0.062872 0.084995 0.808657 -0.081478 0.828795 -0.605295 -0.014062 -0.151182 -0.273845 -0.061534 -0.576263 0.686513 0.243687 0.392686 -0.254811 0.008855 0.664759 0.431890 0.577497 -0.188214 0.121352 0.010295 -0.473594 -0.109844 -0.081411 -0.305254 0.893658 0.618773 -1.017905 -0.051615 0.138263
98 0.073884 -0.094090 -0.081892 -0.641135 0.122808 -1.282718 -0.051756 -1.046148 0.684377 0.034412 0.580518 -0.526034 -0.091572 -0.319390 0.382979 -0.076346 0.852672 -0.060031 0.418035 -0.577293 -0.052353 0.434888 -0.061737 1.292863 -0.553664 -1.039476 -0.081056 -1.084157 -0.856066 -0.352343 0.499516 -0.305691 -0.044412 -0.649360 0.021704 0.140694 -0.666258 0.522921 0.911999 -0.008572 -0.684654 0.305690 0.394468 0.052677 -0.585940 0.232411 -0.208694 -0.805728 -0.356646 0.205508
2793 0.644545 0.100860 0.998909 0.112306 -0.430990 -0.916025 -0.659401 0.024887 0.631927 -0.119587 0.179989 0.580741 -0.018728 0.433987 0.456512 0.420549 0.155192 -0.467007 -0.477136 -0.519234 -0.215862 1.044895 -0.589924 0.687636 -0.186813 -0.672525 -0.654007 -0.490086 0.469142 -0.289001 1.185857 0.114374 0.174539 -0.403793 0.302161 -0.027903 -0.347667 0.519047 -0.126864 0.466307 0.237245 0.064254 0.319756 -0.233823 0.067616 -0.563304 0.119878 -0.171693 -0.632993 -0.647929
3851 -0.094278 0.093146 0.161932 0.601652 0.231325 0.177292 -0.181685 -0.664298 0.522265 0.650844 -0.056037 0.581132 -0.248648 0.389351 0.456940 -0.330992 0.655005 -0.895707 0.486319 -0.291704 0.200409 1.302254 -0.164723 0.601082 -0.287528 0.214734 -0.181757 -0.322432 0.503325 -0.175222 0.228272 -0.823559 -0.915080 -0.293353 -0.460431 0.562610 -0.714786 0.345399 0.001206 0.110542 0.340392 -0.490040 0.844458 -0.034862 1.025204 0.564965 -0.150564 -1.525331 -0.065490 -0.333133
1238 0.054037 0.287577 0.762425 -0.336180 0.267979 0.091844 -0.262055 -0.602835 0.611331 0.527951 0.620775 -0.419914 -0.322825 -0.452270 0.460246 0.207838 -0.512251 0.244252 0.458917 0.088884 0.124816 0.720047 -0.052125 0.817011 -0.503494 0.034669 -0.180949 -0.128091 -0.223452 -0.419718 0.600125 0.096238 0.443605 -0.153594 -0.126247 0.644300 0.497617 0.582731 -0.231088 -0.034154 0.026074 -0.397946 0.005421 0.006414 -0.338078 0.862999 0.651500 -1.026436 0.170347 -0.014596
553 -0.147806 -0.079049 0.437267 0.142141 0.006305 -0.423121 -0.237233 -0.739219 0.969113 0.136406 0.401189 -0.209164 -0.037778 -0.671182 0.757034 0.537290 0.106695 -0.631001 -0.423388 0.075360 0.478763 0.890926 0.236736 0.357626 0.366535 -0.527200 -0.296841 0.030995 -0.405823 -0.066688 0.172121 -0.464299 0.253409 -0.078096 -0.465403 0.111146 0.330184 0.408954 -0.103030 -0.207080 0.036526 0.416474 0.391343 0.176384 0.060343 -0.052051 0.818273 -1.249155 0.387867 -0.955101
2877 0.532529 -0.168650 0.811361 0.207559 0.577219 -1.048829 -0.707360 0.055631 0.694015 -0.176082 -0.215872 -0.025753 0.076905 0.267107 0.646943 0.031104 0.653934 -0.143451 0.153588 -0.157708 -0.739992 1.054777 -0.782457 0.978488 -0.202084 -0.471925 -0.765151 -0.182556 0.381135 0.019811 0.324359 -0.540904 0.753327 -0.209799 -0.140368 0.782031 0.140548 0.258077 0.242107 0.573008 0.828689 0.064420 1.269162 -0.034027 -0.142820 -0.528676 0.314479 -0.040391 0.014419 -0.392185
1604 0.050674 0.271707 0.756635 -0.316817 0.337099 0.083668 -0.248399 -0.680686 0.626356 0.515004 0.632176 -0.428065 -0.325288 -0.462672 0.522301 0.171540 -0.498822 0.207873 0.442157 0.131795 0.201205 0.709170 0.009794 0.763086 -0.492902 0.049935 -0.178121 -0.113367 -0.259640 -0.429654 0.575845 0.078844 0.458582 -0.151340 -0.153163 0.655000 0.530841 0.570714 -0.184890 -0.016223 0.004703 -0.397355 0.047557 0.027651 -0.333041 0.895605 0.676176 -1.047876 0.162005 0.039612
1522 0.259335 0.279790 0.886973 -0.352315 0.322284 0.082751 -0.289792 -0.646576 0.588489 0.603907 0.601892 -0.266314 -0.400710 -0.363852 0.407629 0.160516 -0.536400 0.232794 0.558768 0.017807 0.088409 0.802520 -0.101485 0.779820 -0.557343 0.003871 -0.135880 -0.234270 -0.083004 -0.568997 0.749081 0.158180 0.277654 -0.221069 0.022252 0.622429 0.496995 0.546062 -0.197387 0.140767 -0.003028 -0.498064 -0.032249 -0.041883 -0.321841 0.878763 0.573072 -0.970546 -0.008675 0.151840
3232 0.522580 -0.172252 0.876779 0.244128 0.604767 -0.980381 -0.637373 0.083529 0.684831 -0.099015 -0.218257 -0.023627 0.069511 0.267052 0.632679 -0.013459 0.655532 -0.134765 0.252150 -0.208997 -0.633837 0.974565 -0.807785 0.965830 -0.256002 -0.401950 -0.705377 -0.162615 0.375257 -0.038016 0.354806 -0.477317 0.717856 -0.197813 -0.073369 0.821096 0.174940 0.275881 0.237794 0.556566 0.813404 -0.041217 1.206537 0.023850 -0.164763 -0.418496 0.369941 -0.005631 0.019768 -0.332139
2716 0.599351 0.057842 1.102147 0.135926 -0.450057 -0.767363 -0.648980 0.019439 0.636802 -0.075370 0.110931 0.564719 0.029005 0.430092 0.415281 0.411673 0.173524 -0.428200 -0.393178 -0.542205 -0.189857 0.997185 -0.718302 0.591676 -0.247264 -0.645462 -0.566526 -0.416301 0.479111 -0.288861 1.210911 0.166261 0.177643 -0.383301 0.377349 0.041934 -0.299362 0.475954 -0.077527 0.461718 0.304111 -0.065606 0.346019 -0.222025 0.098420 -0.520957 0.153455 -0.122265 -0.579820 -0.572362
993 0.302196 0.361711 0.892003 -0.304363 0.315371 0.047650 -0.317818 -0.665811 0.623004 0.581670 0.652751 -0.314287 -0.417766 -0.422842 0.413621 0.289573 -0.642212 0.239387 0.533984 0.103837 0.120080 0.836836 -0.070162 0.786105 -0.518606 -0.007487 -0.128923 -0.216048 -0.110060 -0.581324 0.685833 0.175805 0.372167 -0.195347 -0.005925 0.611817 0.542631 0.596933 -0.262829 0.094385 -0.000835 -0.438386 -0.062967 -0.072019 -0.333441 0.922760 0.659549 -1.027195 0.024103 0.085281
1185 0.291090 0.342625 0.905723 -0.338150 0.334435 0.010329 -0.272124 -0.590321 0.563111 0.599276 0.686536 -0.301969 -0.349458 -0.377279 0.277620 0.239281 -0.642931 0.312205 0.573787 0.062718 0.063283 0.807011 -0.114937 0.857594 -0.567646 -0.063921 -0.100656 -0.251054 -0.094346 -0.607410 0.677169 0.167298 0.383415 -0.252953 0.043746 0.625286 0.375371 0.580259 -0.253537 0.097299 0.012626 -0.455374 -0.089395 -0.094377 -0.375895 0.911856 0.570690 -0.892326 -0.030786 0.104052
1184 0.236175 0.358422 0.840183 -0.340263 0.391317 -0.011560 -0.202313 -0.662305 0.576380 0.618605 0.677919 -0.301586 -0.367502 -0.393542 0.320543 0.223707 -0.587006 0.247938 0.595868 0.107360 0.105492 0.778975 -0.053846 0.823459 -0.478786 -0.031705 -0.068874 -0.212076 -0.141408 -0.569095 0.636214 0.046135 0.341553 -0.204306 0.010874 0.638301 0.434083 0.569826 -0.228367 0.019580 -0.025658 -0.472433 -0.023470 -0.035237 -0.377725 0.967359 0.587188 -0.923673 0.064589 0.071136
2778 0.674067 0.122664 0.931722 0.229910 -0.482268 -0.971315 -0.573859 0.070565 0.624013 -0.145219 0.177803 0.554130 -0.031963 0.509469 0.444302 0.455394 0.076074 -0.556379 -0.499451 -0.500764 -0.129584 0.960808 -0.440288 0.699923 -0.135835 -0.563420 -0.613789 -0.455324 0.528312 -0.302231 1.181801 0.152547 0.101846 -0.398679 0.250130 -0.064728 -0.324439 0.569009 -0.189461 0.413112 0.199767 0.026431 0.245939 -0.275842 0.096432 -0.488551 0.099975 -0.191915 -0.642633 -0.629601
694 0.154119 0.880782 0.858379 -0.276505 0.729475 -0.998652 0.394736 -0.166287 1.010345 0.896345 1.508433 0.197065 0.357545 -0.006285 0.379904 -0.604672 0.539477 -0.719561 0.006990 0.131775 0.004439 1.391774 -0.404498 0.160426 0.148803 -0.880552 -0.155614 0.144478 -0.092719 -0.916589 0.857254 -0.587381 0.542986 0.218587 0.477757 0.470672 -0.876782 0.056953 0.345750 0.123281 0.073443 -0.746393 0.625150 0.525332 -0.366984 1.107185 0.713801 0.285273 -0.322065 -0.629585
1153 0.189117 0.416314 0.798685 -0.384512 0.363466 0.036549 -0.298549 -0.625183 0.604329 0.597370 0.740971 -0.388859 -0.306725 -0.305868 0.365266 0.150471 -0.586140 0.343264 0.619690 0.104227 0.044864 0.799927 -0.132182 0.908146 -0.631750 -0.013937 -0.162680 -0.207336 -0.112718 -0.553027 0.692416 0.193562 0.499640 -0.182825 -0.041125 0.701027 0.346233 0.559400 -0.238432 0.041511 0.012067 -0.557350 -0.019441 -0.057457 -0.383398 1.002293 0.554790 -0.928322 -0.023797 0.142432
2661 0.727857 0.129070 0.965164 0.204352 -0.474729 -0.981829 -0.674355 0.014274 0.630131 -0.215419 0.169503 0.575399 -0.065857 0.478716 0.486862 0.471512 0.040913 -0.604810 -0.588154 -0.496891 -0.171075 1.036212 -0.458028 0.667496 -0.089565 -0.633446 -0.662753 -0.492904 0.568579 -0.294725 1.168332 0.130513 0.105197 -0.410838 0.241959 -0.091664 -0.327321 0.519926 -0.177760 0.493233 0.223626 0.118401 0.285967 -0.295108 0.121284 -0.628879 0.155453 -0.220277 -0.665035 -0.679980
170 0.083779 -0.105188 -0.043047 -0.613939 0.165921 -1.232918 -0.132526 -1.112627 0.706355 0.063152 0.556491 -0.489033 -0.115876 -0.336436 0.426066 -0.106933 0.856463 -0.005762 0.483280 -0.555387 -0.016628 0.471948 -0.082976 1.316053 -0.585034 -1.044794 -0.128300 -1.096363 -0.851527 -0.404739 0.509600 -0.290324 -0.057871 -0.731312 -0.027944 0.184859 -0.611273 0.507595 0.928674 -0.033000 -0.654836 0.262641 0.414814 0.043610 -0.615122 0.272053 -0.233316 -0.851328 -0.350014 0.231137
1017 0.292113 0.456723 0.811159 -0.300647 0.416934 0.152928 -0.316261 -0.662533 0.576402 0.661902 0.720394 -0.239527 -0.356167 -0.252188 0.323019 0.021699 -0.657180 0.266860 0.762639 0.112654 -0.045138 0.839817 -0.085413 0.790916 -0.611661 0.053931 -0.070969 -0.239037 0.042632 -0.610155 0.659592 0.212848 0.222654 -0.217734 -0.003387 0.721339 0.347774 0.435263 -0.241813 0.195876 0.037389 -0.640886 -0.027330 -0.156711 -0.206689 0.981113 0.420011 -0.981990 -0.086619 0.264918
2081 0.166470 0.373327 0.048671 -0.116847 -0.051517 -0.564373 -0.540018 -0.736941 0.814945 0.071031 1.034353 -0.231202 0.412912 -0.484157 0.205745 -0.005055 -0.318019 0.433954 0.479609 0.262442 -0.778058 0.891109 0.022991 0.868683 -0.233577 -1.032188 -0.410817 -0.261348 -0.164918 -0.274478 0.253880 0.307568 -0.060908 -0.455548 -0.685846 0.233398 -0.375020 -0.281336 -0.347402 0.498171 0.205215 -0.037740 -0.000781 -0.503598 -0.203725 -0.337306 -0.723505 -0.848885 -0.172976 -0.313158
1577 0.474322 0.424144 0.322982 -0.138446 -0.054269 -0.293636 -0.533737 -0.669098 0.664365 0.176790 0.929030 -0.112500 0.147939 -0.296828 0.149287 -0.058497 -0.569394 0.238977 0.527340 0.102536 -0.824289 0.903248 0.022897 0.537619 -0.275403 -0.785689 -0.218497 -0.243428 0.073992 -0.298187 0.438674 0.456954 -0.306465 -0.304294 -0.328738 0.292435 -0.157211 -0.293819 -0.423573 0.918561 0.174229 -0.230389 -0.104645 -0.534084 -0.007779 -0.241401 -0.613103 -0.741535 -0.275577 0.052113
1235 0.275954 0.549726 0.439901 0.452957 0.414632 -0.212732 -0.876044 -0.630440 0.927899 -0.327968 0.746612 -0.459210 -0.059901 -0.133868 0.518612 -0.074801 -0.503237 -0.418583 0.157172 0.337818 0.702517 0.415190 0.197467 0.289657 -0.294321 -0.191241 -0.489151 -0.598952 0.173228 -0.299897 -0.172067 0.269476 0.749584 -0.373868 -0.218124 0.559835 0.168215 0.171100 0.588779 -0.284323 0.110567 0.160673 0.245655 0.043151 0.182624 0.172114 1.022829 -1.104885 -0.433571 -0.160603
781 0.191637 0.862141 0.892855 -0.256105 0.704336 -1.025344 0.386760 -0.143515 1.036781 0.917911 1.541037 0.208460 0.359177 -0.026196 0.385954 -0.600546 0.505235 -0.756334 -0.028924 0.126082 -0.013434 1.430267 -0.417165 0.162617 0.167239 -0.911112 -0.163724 0.144181 -0.100330 -0.921688 0.875862 -0.623961 0.583344 0.223466 0.480265 0.469520 -0.879335 0.064552 0.351851 0.112841 0.091241 -0.710412 0.614204 0.526519 -0.400206 1.099358 0.719375 0.304613 -0.336796 -0.658043
2133 0.127114 0.354634 0.084065 -0.196780 -0.033085 -0.515995 -0.469566 -0.496535 0.757654 0.354446 1.232744 -0.006420 0.406385 -0.422972 0.249839 0.043928 -0.208463 0.170677 0.438804 0.262266 -0.836584 1.059178 -0.004512 0.687831 -0.071153 -1.027986 -0.336004 -0.067858 -0.119566 -0.229016 0.124710 0.115031 -0.111189 -0.268916 -0.615533 0.464739 -0.519225 -0.325012 -0.263525 0.673443 0.189170 -0.156017 -0.002111 -0.405672 -0.148368 -0.251954 -0.822726 -0.724752 -0.052189 -0.181218
199 0.051858 -0.054016 -0.075105 -0.585486 0.144435 -1.212610 -0.158806 -1.071470 0.664971 0.021407 0.587388 -0.503033 -0.080973 -0.273115 0.343699 -0.094649 0.778656 0.039651 0.480856 -0.560592 -0.033722 0.442616 -0.078335 1.294102 -0.593577 -1.039693 -0.144191 -1.118985 -0.809193 -0.422838 0.490820 -0.197028 -0.050899 -0.764835 0.004704 0.184833 -0.630009 0.520587 0.935344 -0.043112 -0.652063 0.283249 0.417688 0.017433 -0.571203 0.269367 -0.284864 -0.818755 -0.386062 0.249330
285 0.061439 -0.125728 -0.163723 -0.635224 0.096945 -1.058637 -0.233481 -0.974824 0.651799 0.153233 0.642958 -0.348272 0.054112 -0.386712 0.278969 -0.125522 0.708722 0.144258 0.421758 -0.453342 -0.219630 0.459896 -0.077376 1.201416 -0.577938 -1.155172 -0.225175 -1.023319 -0.681536 -0.498851 0.436691 -0.128704 -0.111528 -0.712566 -0.146463 0.195197 -0.693714 0.224979 0.823223 0.202703 -0.577167 0.217811 0.232212 0.034998 -0.556489 0.116225 -0.434210 -0.738618 -0.353163 0.215000
561 -0.192971 -0.145005 0.464727 0.205177 -0.057288 -0.362983 -0.302890 -0.801710 0.948687 0.241268 0.348123 -0.150922 -0.174131 -0.625734 0.831152 0.634259 0.098580 -0.561845 -0.312355 0.135400 0.485868 0.907993 0.236350 0.466869 0.344483 -0.365192 -0.287809 0.042728 -0.427998 -0.050150 0.272415 -0.480994 0.166820 -0.122705 -0.502393 0.114499 0.468872 0.501317 -0.177251 -0.198776 0.014177 0.332951 0.366302 0.084021 0.097687 0.018908 0.691090 -1.422166 0.495930 -0.793794
188 0.071190 -0.099099 -0.107909 -0.606342 0.171608 -1.199029 -0.175010 -1.044928 0.655910 0.078279 0.588832 -0.441462 -0.081990 -0.256344 0.388045 -0.176716 0.809076 0.001421 0.469421 -0.518664 -0.020782 0.461876 -0.105215 1.243731 -0.586798 -1.045992 -0.188344 -1.105103 -0.762118 -0.447210 0.501035 -0.227881 -0.109952 -0.772777 -0.055907 0.183171 -0.605778 0.409494 0.887841 0.014098 -0.639169 0.246604 0.377789 0.052434 -0.591706 0.227277 -0.315458 -0.789756 -0.359373 0.253128
395 -0.291071 -0.222504 0.479326 0.194692 -0.047313 -0.504164 -0.279118 -0.666811 1.000919 0.172486 0.396987 -0.224922 0.037575 -0.703641 0.771288 0.554714 0.211535 -0.658912 -0.422401 0.067984 0.538251 0.784149 0.178670 0.496793 0.341385 -0.556070 -0.284174 -0.112820 -0.446624 0.007414 0.143181 -0.507460 0.290651 -0.246501 -0.465840 0.118592 0.324191 0.560894 0.007447 -0.337059 0.036145 0.529224 0.286601 0.155633 0.029986 -0.124121 0.870988 -1.401568 0.375699 -0.962113
1879 0.238582 0.396219 0.912769 -0.317519 0.360542 0.070584 -0.309734 -0.645025 0.648463 0.583463 0.739911 -0.371760 -0.370988 -0.365552 0.391555 0.165075 -0.666698 0.250884 0.620300 0.100022 0.098845 0.817131 -0.089497 0.826249 -0.601976 0.002163 -0.154516 -0.243512 -0.077360 -0.571359 0.708494 0.187947 0.425674 -0.244538 -0.017680 0.709945 0.463068 0.584400 -0.242917 0.077657 0.040519 -0.525886 -0.019712 -0.059779 -0.330587 0.952998 0.640325 -1.004419 -0.014487 0.109128
1204 0.263480 0.496397 0.365712 0.426149 0.365725 -0.155583 -0.933376 -0.811570 1.003368 -0.356096 0.630802 -0.406558 -0.079734 -0.075807 0.689139 -0.078159 -0.521529 -0.466855 0.136807 0.371662 0.711979 0.495067 0.271334 0.226783 -0.277507 -0.170708 -0.613854 -0.524033 0.216466 -0.242342 -0.099071 0.318142 0.686791 -0.384048 -0.315019 0.541654 0.360860 0.085143 0.537513 -0.173264 0.099289 0.097644 0.315063 0.013930 0.261073 0.148347 0.942997 -1.244014 -0.383411 -0.034084
2694 0.561814 -0.168377 0.794314 0.202427 0.478853 -1.066683 -0.721618 0.049596 0.663540 -0.229847 -0.222776 -0.001454 0.054069 0.273080 0.658697 0.102466 0.597216 -0.166667 0.063015 -0.200245 -0.715319 1.038019 -0.747938 0.978848 -0.186873 -0.484926 -0.781270 -0.219063 0.402662 0.045797 0.371922 -0.492085 0.704818 -0.241959 -0.122181 0.680856 0.126803 0.276515 0.198593 0.582754 0.778529 0.114779 1.191847 -0.055107 -0.135832 -0.595927 0.290672 -0.061876 -0.044963 -0.436967
1603 0.308064 0.373360 0.896529 -0.345254 0.338096 0.002178 -0.268674 -0.639582 0.574812 0.602054 0.680138 -0.328154 -0.385972 -0.374970 0.356502 0.255867 -0.644088 0.254699 0.553916 0.081671 0.079836 0.848867 -0.096460 0.829834 -0.525921 -0.021549 -0.106003 -0.203799 -0.086950 -0.576777 0.711350 0.129567 0.350990 -0.221372 0.018519 0.614966 0.477924 0.588773 -0.304114 0.101603 0.000223 -0.462171 -0.064410 -0.086213 -0.370315 0.927562 0.600020 -0.941211 0.029454 0.068211
1557 0.186028 0.263520 0.903684 -0.333607 0.260674 0.126424 -0.269263 -0.587723 0.604524 0.686822 0.568807 -0.282070 -0.383205 -0.443542 0.465108 0.249702 -0.553656 0.250446 0.541201 0.034740 0.080949 0.891566 -0.132125 0.898553 -0.535445 0.036411 -0.131859 -0.115369 -0.107230 -0.519303 0.768293 0.148375 0.313626 -0.188364 -0.012337 0.670140 0.512982 0.611525 -0.271808 0.125969 0.047440 -0.467224 -0.054730 -0.038206 -0.333128 0.906610 0.579087 -1.061943 0.055604 0.051557
1104 0.237310 0.511790 0.348955 0.409918 0.404186 -0.216755 -0.938820 -0.739309 0.971350 -0.396342 0.697244 -0.489391 -0.056096 -0.108544 0.656787 -0.051751 -0.490124 -0.414536 0.123574 0.350423 0.755499 0.497484 0.215405 0.344375 -0.341301 -0.212578 -0.620198 -0.567924 0.188219 -0.256029 -0.126622 0.317454 0.812225 -0.385391 -0.300489 0.548832 0.245687 0.135591 0.599669 -0.271404 0.091860 0.147654 0.282095 0.059566 0.178180 0.179715 0.992971 -1.212611 -0.440113 -0.089261
3906 0.214869 0.281030 0.175332 0.403836 -0.001710 -0.030926 -0.206887 -0.626117 0.574644 -0.191447 0.554599 0.351614 -0.561139 -0.187093 -0.124152 0.142161 0.676890 -0.336290 0.809862 -0.802916 0.564642 1.188396 0.433257 0.370490 -0.863183 -0.094838 -0.600125 -0.264729 0.192169 -0.344818 0.194856 -0.737364 0.155905 -0.340244 -0.648386 0.694357 -1.260173 0.699823 0.380965 0.005294 0.291674 -0.745190 0.808231 0.096782 1.235865 -0.079810 -0.384994 -0.890484 0.045409 -0.670792
2786 0.559972 -0.170319 0.905704 0.202443 0.581362 -1.040379 -0.710193 0.057752 0.690958 -0.127187 -0.232364 0.019353 0.024211 0.271908 0.650914 0.033998 0.628568 -0.179794 0.159093 -0.197539 -0.695072 1.049291 -0.785877 0.966738 -0.215297 -0.437961 -0.735843 -0.239190 0.420266 -0.027515 0.382941 -0.489020 0.738235 -0.223530 -0.050891 0.748085 0.138593 0.262683 0.232185 0.574446 0.778047 0.051143 1.273022 -0.019396 -0.162217 -0.473448 0.359783 -0.011550 -0.038812 -0.363285
1420 0.315506 0.200952 0.881282 -0.247064 0.183116 0.189535 -0.356890 -0.538823 0.559486 0.591032 0.370117 -0.125630 -0.393590 -0.343943 0.341580 0.421888 -0.610155 0.179224 0.388105 -0.032957 0.200744 0.863530 -0.129714 0.763434 -0.529969 0.029592 -0.153061 -0.176829 0.051371 -0.523999 0.690169 0.219518 0.245468 -0.188262 0.012389 0.467356 0.417415 0.589218 -0.357880 0.102855 0.026780 -0.365138 -0.078617 -0.109150 -0.195481 0.760142 0.621545 -1.011791 0.010953 0.037979
3734 -0.114491 0.134772 0.190291 0.598959 0.286184 0.180954 -0.162085 -0.652448 0.542444 0.706990 -0.077517 0.605347 -0.153346 0.486932 0.515717 -0.390756 0.695917 -0.967941 0.413808 -0.286207 0.199447 1.352464 -0.203905 0.612117 -0.291357 0.162844 -0.212667 -0.252795 0.583853 -0.193713 0.266093 -0.835799 -0.963565 -0.270961 -0.451446 0.552114 -0.927821 0.282876 -0.074790 0.121834 0.376635 -0.517856 0.943336 -0.055754 1.002531 0.536787 -0.165664 -1.547336 -0.057781 -0.424591
1736 0.191025 0.436640 0.809529 -0.326752 0.356277 0.057970 -0.316929 -0.634830 0.615556 0.571570 0.759357 -0.390433 -0.313085 -0.359458 0.374836 0.129176 -0.647263 0.284230 0.624655 0.145766 0.045504 0.805987 -0.070089 0.848701 -0.580363 0.012121 -0.153146 -0.204172 -0.107355 -0.517317 0.627319 0.200032 0.451595 -0.180278 -0.069861 0.719628 0.412433 0.514301 -0.214359 0.089801 0.038252 -0.509266 -0.013905 -0.069025 -0.332357 0.950357 0.559988 -0.964501 -0.006243 0.154423
2111 0.280964 0.371702 0.097454 -0.117669 -0.103097 -0.503081 -0.554497 -0.788778 0.889081 0.134335 1.027195 -0.150147 0.356082 -0.545260 0.171987 -0.043981 -0.308821 0.401505 0.522325 0.197586 -0.845639 0.932793 0.096445 0.821777 -0.268889 -1.065985 -0.423377 -0.305664 -0.132226 -0.297670 0.300655 0.287234 -0.130742 -0.406113 -0.653625 0.277915 -0.456134 -0.318628 -0.293021 0.682388 0.215631 -0.103654 -0.049670 -0.496171 -0.109332 -0.328079 -0.735992 -0.876895 -0.229653 -0.225886
1516 0.258463 0.416007 0.854272 -0.339698 0.384225 0.046093 -0.296371 -0.643187 0.592401 0.574289 0.718806 -0.376959 -0.395079 -0.347719 0.390125 0.133823 -0.621277 0.286808 0.651786 0.097226 0.081744 0.797221 -0.100262 0.838275 -0.582756 0.024721 -0.132406 -0.252887 -0.095857 -0.592438 0.682953 0.166949 0.413849 -0.223110 -0.007171 0.706442 0.461494 0.536875 -0.188200 0.062478 0.011412 -0.542902 -0.014406 -0.042625 -0.365189 0.980985 0.608338 -0.959684 -0.019077 0.153323
3201 0.701207 0.159733 0.928718 0.190293 -0.437364 -0.965658 -0.610345 0.004300 0.607749 -0.160962 0.173936 0.588159 -0.076946 0.494164 0.464646 0.457354 0.061938 -0.581777 -0.557276 -0.476724 -0.152948 1.032964 -0.405916 0.662176 -0.067311 -0.586836 -0.617670 -0.457208 0.546240 -0.324290 1.167162 0.090612 0.073830 -0.381801 0.263628 -0.098615 -0.357389 0.546090 -0.203318 0.438082 0.196933 0.081042 0.270018 -0.291201 0.125339 -0.514313 0.119610 -0.219595 -0.660034 -0.668750
1085 0.179567 0.144817 0.604918 0.455432 0.315756 0.625678 -0.254807 -0.632689 0.419306 0.587788 -0.119219 0.471517 -0.546532 0.169659 0.485178 -0.351347 0.046413 -0.716314 0.410431 -0.290561 0.472505 0.915118 0.057191 0.063343 -0.404502 0.477648 -0.208492 -0.170861 0.640167 -0.389155 0.423333 -0.341680 -0.789199 -0.169539 -0.111582 0.512892 -0.163074 0.283179 -0.032482 0.318358 0.306783 -0.578997 0.564334 -0.040447 0.838168 0.523619 0.273190 -1.331971 -0.124942 -0.056803
2283 0.205834 0.369486 0.074962 -0.141687 0.002731 -0.503938 -0.559262 -0.681671 0.795808 0.147633 1.099691 -0.189358 0.364469 -0.471818 0.230926 -0.005586 -0.355190 0.348670 0.517519 0.252265 -0.744530 0.955481 0.019191 0.786684 -0.214385 -1.020757 -0.418753 -0.216485 -0.106697 -0.316265 0.209837 0.283749 -0.129879 -0.442704 -0.656009 0.275281 -0.409806 -0.308373 -0.318697 0.545221 0.220478 -0.066753 0.016184 -0.502839 -0.207486 -0.291179 -0.762142 -0.823638 -0.163971 -0.267868
3456 -0.044906 0.188194 0.314406 0.564145 0.337217 0.132620 -0.006170 -0.537972 0.531867 0.706257 0.029336 0.553217 -0.101685 0.425146 0.422607 -0.322463 0.849334 -0.810381 0.386841 -0.297109 0.181785 1.226900 -0.135885 0.484439 -0.259274 0.040453 -0.115417 -0.092105 0.499223 -0.289263 0.236829 -0.719592 -0.818775 -0.143713 -0.420899 0.526130 -0.920903 0.186957 -0.088978 0.051996 0.292539 -0.460563 0.881241 -0.092063 0.953109 0.559294 -0.068589 -1.401346 -0.105676 -0.455332
3495 -0.141891 0.188380 0.228753 0.538741 0.336061 0.199297 0.018037 -0.570702 0.503803 0.768949 0.062122 0.544079 -0.167428 0.364404 0.410768 -0.365772 0.716143 -0.881113 0.376799 -0.242668 0.266785 1.289176 -0.120843 0.515198 -0.278692 0.144115 -0.172792 -0.116942 0.499800 -0.285448 0.262907 -0.830277 -0.905201 -0.127815 -0.388912 0.525341 -0.918975 0.292022 -0.077373 0.044488 0.353124 -0.581739 0.869063 0.041052 0.894985 0.692214 -0.041314 -1.384554 -0.049850 -0.434450
2289 0.109135 0.340186 0.066518 -0.143715 -0.000597 -0.523144 -0.509588 -0.518211 0.778621 0.358226 1.225207 0.017000 0.428768 -0.454938 0.245335 0.037703 -0.211856 0.223614 0.468206 0.348560 -0.796235 1.038747 -0.013451 0.680785 -0.064287 -1.027170 -0.368154 -0.078826 -0.105760 -0.258721 0.086600 0.149967 -0.144452 -0.360119 -0.688690 0.422526 -0.485656 -0.358477 -0.264683 0.572308 0.222564 -0.142656 -0.017859 -0.434950 -0.193311 -0.276447 -0.849691 -0.739873 -0.050027 -0.227683
1459 0.344414 0.604470 0.353030 0.493235 0.415387 -0.209423 -0.969873 -0.736918 0.940471 -0.409875 0.713833 -0.415545 -0.102297 -0.055317 0.608296 -0.171122 -0.485988 -0.471347 0.181032 0.361972 0.698708 0.457143 0.218046 0.204934 -0.297829 -0.190541 -0.565726 -0.627189 0.245969 -0.303367 -0.159223 0.307830 0.664521 -0.384642 -0.245376 0.537193 0.188653 0.019178 0.665076 -0.199729 0.112979 0.124790 0.308244 0.029318 0.267284 0.132651 0.930885 -1.125315 -0.504316 -0.063597
2328 0.224842 0.396390 0.058556 -0.087072 -0.086534 -0.531481 -0.523642 -0.792590 0.836881 0.030920 1.010963 -0.215062 0.357901 -0.483903 0.187761 -0.046733 -0.330914 0.394458 0.482669 0.206136 -0.780675 0.877264 0.056456 0.841652 -0.235315 -1.016665 -0.397249 -0.319628 -0.129017 -0.284280 0.292073 0.292614 -0.130476 -0.456670 -0.625461 0.219458 -0.383915 -0.277820 -0.318339 0.569278 0.194277 -0.039528 0.008068 -0.521763 -0.135569 -0.345966 -0.685520 -0.872535 -0.224735 -0.277560
332 -0.012397 -0.089604 -0.108917 -0.629081 0.150008 -1.236436 -0.085559 -0.991974 0.677509 0.141278 0.590634 -0.460204 -0.073344 -0.188432 0.355954 -0.199884 0.878229 -0.039887 0.430093 -0.591534 -0.050391 0.453793 -0.124674 1.297160 -0.571607 -1.016130 -0.140843 -1.147922 -0.761320 -0.545999 0.591067 -0.299099 -0.064590 -0.702810 0.101370 0.252786 -0.720464 0.472703 0.991197 0.027795 -0.715070 0.232061 0.465784 0.129734 -0.557795 0.387039 -0.290741 -0.774457 -0.387767 0.227404
1222 0.320592 0.240209 0.830444 -0.244225 0.266962 0.091549 -0.329393 -0.658471 0.621732 0.486753 0.559266 -0.300784 -0.421413 -0.462054 0.432336 0.273403 -0.639943 0.159121 0.425941 0.071980 0.109749 0.773491 0.025491 0.633259 -0.430227 -0.019244 -0.169380 -0.182644 -0.073223 -0.524468 0.624061 0.164812 0.271686 -0.194927 -0.064793 0.492137 0.548912 0.502545 -0.276170 0.190546 0.021015 -0.346320 -0.033819 -0.063311 -0.253455 0.688941 0.618102 -1.013052 0.082345 0.051859
3038 0.661471 0.093447 1.087439 0.113145 -0.409068 -0.781884 -0.661623 -0.015383 0.629136 -0.090739 0.163595 0.557843 -0.066553 0.392061 0.410890 0.436384 0.043028 -0.453726 -0.437884 -0.504869 -0.123938 0.985583 -0.597538 0.577440 -0.222932 -0.628938 -0.582133 -0.474579 0.466936 -0.340100 1.214550 0.201202 0.133262 -0.398213 0.376846 -0.024554 -0.224770 0.488245 -0.124756 0.479967 0.227638 0.015300 0.254870 -0.233790 0.072062 -0.476815 0.211747 -0.165175 -0.626413 -0.543356
916 0.188532 0.359860 0.755635 -0.342414 0.287998 0.114802 -0.314688 -0.585043 0.591988 0.589594 0.662384 -0.366114 -0.312123 -0.395657 0.344278 0.190804 -0.610816 0.334882 0.616288 0.076258 -0.012931 0.816071 -0.121447 0.892544 -0.575710 -0.021750 -0.152477 -0.190634 -0.081151 -0.510229 0.622148 0.214925 0.363474 -0.216024 -0.095451 0.627432 0.361175 0.527483 -0.314786 0.081981 0.047523 -0.480119 -0.067287 -0.120535 -0.317804 0.885829 0.489306 -1.020722 0.004087 0.086720
2730 0.577466 -0.183377 1.489852 0.095112 -0.222848 -0.446434 -0.645268 -0.064541 0.674671 0.169507 0.057665 0.531202 0.126899 0.334149 0.352381 0.163400 0.334538 -0.363671 -0.007133 -0.700178 0.011623 0.874959 -1.045963 0.356899 -0.600347 -0.716633 -0.407876 -0.500054 0.465943 -0.513362 1.260544 0.263085 0.224678 -0.482855 0.695108 0.262469 -0.083282 0.382387 0.169571 0.528982 0.369735 -0.318730 0.416640 -0.008398 0.057945 -0.443734 0.374752 0.007868 -0.571735 -0.252685
500 -0.055236 -0.177845 0.327995 0.220293 0.011250 -0.531567 -0.347491 -0.864741 0.930797 0.101406 0.271430 -0.162128 -0.181235 -0.609946 0.843330 0.674638 0.250205 -0.636403 -0.425911 0.135755 0.540591 0.907878 0.128239 0.480805 0.338671 -0.485527 -0.360138 -0.044159 -0.412371 -0.081337 0.261235 -0.562736 0.127130 -0.181214 -0.456893 -0.111029 0.445836 0.377484 -0.157106 -0.221359 -0.071015 0.503419 0.402259 0.122910 0.025503 -0.133173 0.711235 -1.303500 0.457488 -0.840907
1662 0.319816 0.407373 0.899150 -0.323146 0.419012 0.025961 -0.311903 -0.676126 0.589146 0.562264 0.706437 -0.356013 -0.411070 -0.345889 0.361761 0.144375 -0.642254 0.265490 0.611285 0.080814 0.099500 0.795451 -0.104773 0.828744 -0.595329 0.012321 -0.124693 -0.291197 -0.073142 -0.603118 0.690421 0.159875 0.406544 -0.236197 0.046775 0.680373 0.474115 0.583370 -0.218131 0.089356 -0.000812 -0.515269 -0.021662 -0.047334 -0.348820 0.940272 0.633981 -0.953554 -0.039204 0.147418
724 0.102823 0.873904 0.829722 -0.253315 0.744316 -0.989924 0.391740 -0.177215 0.979619 0.907515 1.507980 0.169348 0.364100 0.004541 0.404603 -0.607844 0.583984 -0.714280 0.008110 0.156875 0.001956 1.329712 -0.402048 0.205996 0.155152 -0.869770 -0.138410 0.124499 -0.116599 -0.879841 0.848888 -0.579806 0.494555 0.238318 0.445360 0.461280 -0.867714 0.048813 0.339952 0.103383 0.061146 -0.736070 0.619206 0.493519 -0.359562 1.087056 0.678550 0.255667 -0.349802 -0.616369
1146 0.355979 0.344741 0.929561 -0.329496 0.307673 0.032744 -0.301096 -0.655180 0.584032 0.580721 0.655022 -0.279904 -0.379369 -0.389247 0.332098 0.221790 -0.667989 0.270445 0.601528 0.052091 0.034217 0.821209 -0.074507 0.816407 -0.553022 -0.059818 -0.098636 -0.255844 -0.060967 -0.594551 0.733078 0.204411 0.269960 -0.259200 0.047903 0.610578 0.444749 0.537670 -0.265059 0.189803 0.002042 -0.459880 -0.092679 -0.105618 -0.327061 0.832516 0.538228 -0.947157 -0.041983 0.126009
3150 0.671961 0.097387 1.063086 0.154633 -0.419622 -0.820334 -0.617829 -0.003411 0.593961 -0.087776 0.158685 0.541976 -0.046787 0.442373 0.412533 0.416174 0.030186 -0.481044 -0.427032 -0.508444 -0.096169 0.944390 -0.568647 0.578926 -0.212549 -0.611955 -0.542918 -0.471564 0.534822 -0.354109 1.207911 0.194279 0.125059 -0.423099 0.378636 -0.005352 -0.259710 0.502497 -0.140638 0.452195 0.228820 -0.001827 0.247113 -0.243552 0.084014 -0.503299 0.191285 -0.174412 -0.635592 -0.533568
2782 0.518938 -0.152426 0.802032 0.215143 0.664784 -1.016344 -0.656554 0.033713 0.671139 -0.158411 -0.225989 -0.072131 0.066075 0.256034 0.660141 -0.022357 0.653941 -0.160393 0.238554 -0.152842 -0.698767 1.028921 -0.786215 1.000811 -0.217925 -0.416770 -0.735950 -0.155464 0.395723 0.004607 0.278168 -0.521239 0.724248 -0.213290 -0.151882 0.816642 0.162592 0.226621 0.240013 0.573281 0.830211 0.014199 1.290516 0.016160 -0.154447 -0.466980 0.341527 -0.049422 0.039778 -0.385237
1718 0.497224 0.378720 0.332933 -0.161883 0.184238 -0.024106 -0.443098 -0.770417 0.488989 0.392511 0.861645 -0.126766 -0.146370 -0.420078 0.177697 -0.021081 -0.831892 0.265837 0.672356 0.250298 -0.546720 0.810623 0.143337 0.413782 -0.218498 -0.446238 -0.088516 -0.189999 0.073656 -0.450614 0.346625 0.381116 -0.495510 -0.363442 -0.323141 0.279859 0.218701 -0.235387 -0.512052 0.754686 0.071657 -0.266922 -0.207774 -0.530987 -0.119032 0.078196 -0.485270 -0.888263 -0.125656 0.166854
3677 -0.167776 0.004147 0.253900 0.503057 0.211419 0.183493 -0.072337 -0.618626 0.563382 0.629977 -0.048877 0.501639 -0.267157 0.187667 0.520020 -0.239145 0.650398 -0.958911 0.225519 -0.230686 0.366818 1.183410 -0.071336 0.476402 -0.077448 0.128615 -0.185435 -0.116712 0.369282 -0.189932 0.218151 -0.863232 -0.852193 -0.154158 -0.431422 0.421834 -0.628897 0.291817 -0.050922 -0.018664 0.320842 -0.389586 0.823963 0.069998 0.842871 0.496833 0.108151 -1.497675 0.102863 -0.497272
186 0.009224 -0.089968 -0.148435 -0.601705 0.146930 -1.190409 -0.158761 -1.050477 0.678334 0.109530 0.637912 -0.466727 -0.005208 -0.329791 0.320879 -0.111189 0.770697 0.117885 0.475490 -0.506429 -0.112337 0.453092 -0.102167 1.284353 -0.557966 -1.092534 -0.153920 -1.093660 -0.793541 -0.492842 0.488586 -0.175726 -0.093686 -0.739111 -0.056902 0.196454 -0.659834 0.408073 0.908361 0.037097 -0.669971 0.261364 0.366290 0.015529 -0.609229 0.247141 -0.381027 -0.791232 -0.344805 0.208557
1331 0.310982 0.339377 0.847645 -0.343528 0.386377 -0.014820 -0.296825 -0.620625 0.563266 0.578893 0.691063 -0.311349 -0.316005 -0.375536 0.262318 0.231117 -0.664469 0.308224 0.572494 0.084124 0.023788 0.778153 -0.055762 0.829806 -0.565413 -0.067317 -0.106358 -0.284052 -0.073025 -0.605941 0.615309 0.189900 0.383278 -0.231217 -0.026394 0.612094 0.335792 0.530180 -0.260489 0.109638 0.000631 -0.428529 -0.055058 -0.123410 -0.379252 0.909191 0.551100 -0.873990 -0.014224 0.143718
